U,-0.088020526,-0.10528782,-0.1364861,0.121574834,-0.11425003,-0.0178168,0.12563826,-0.09807683,0.052809317,-0.07363653,0.061666362,-0.065919384,-0.028522206,0.011388698,-0.056660764,-0.2998825,-0.17529835,-0.06394864,0.001034144,0.21641386,0.016010681,-0.073193215,-0.098530106,-0.10807413,0.033486374,-0.070720464,0.17179772,-0.0384701,0.05891614,-0.030738354,0.09499456,-0.089882106,0.2651065,-0.081432156,0.3154893,0.16347453,-0.15173425,-0.19448411,-0.4103176,0.10199959,-0.09973255,-0.22446793,-0.11856986,-0.2501409,-0.07606584,0.17766963,-0.23745187,0.18620881,0.26188684,-0.35939595,-0.037427414,-0.047872197,-0.21438614,0.15719661,0.16655116,0.06742165,0.07958008,-0.13727862,0.1580314,0.07622105,-0.05684304,-0.31256735,-0.21717077,0.05186243
G,-0.07236906,-0.10224975,-0.14143018,0.104363054,-0.12469119,-0.036682736,0.1302357,-0.0881804,0.05258754,-0.07174126,0.059378397,-0.07819429,-0.014142271,0.014227693,-0.06369518,-0.27836034,-0.17927332,-0.05374824,0.004327603,0.21618761,0.0017889091,-0.06080546,-0.076594524,-0.11591561,0.041071657,-0.0685867,0.1693749,-0.027880494,0.06703686,-0.017903365,0.08967199,-0.08919676,0.25828886,-0.061912917,0.29940453,0.15140057,-0.14567795,-0.18686469,-0.38957274,0.1005557,-0.10172232,-0.21339162,-0.11996242,-0.24841474,-0.062375534,0.18138088,-0.24080355,0.17930564,0.24881394,-0.3503717,-0.016983474,-0.032079928,-0.20460942,0.14995809,0.16431434,0.068669714,0.08557092,-0.13407393,0.15498224,0.07372917,-0.057229936,-0.2972001,-0.19549748,0.054959457
A,-0.08141279,-0.10597792,-0.14432056,0.111642815,-0.12755047,-0.028090611,0.13415821,-0.092914894,0.06112815,-0.06131121,0.06681004,-0.07436095,-0.026604619,0.012282751,-0.055805963,-0.29435694,-0.17679377,-0.056034878,-0.0006094601,0.22426926,0.0045172893,-0.07200645,-0.093635656,-0.11096831,0.025953025,-0.06256624,0.17435478,-0.041702658,0.062976636,-0.027547406,0.09234194,-0.0850917,0.26446813,-0.075461164,0.31040698,0.16049907,-0.15191567,-0.18735379,-0.40110788,0.09162225,-0.104103185,-0.21903513,-0.11699293,-0.2520466,-0.07969299,0.18140344,-0.2431472,0.19348262,0.26076177,-0.3572163,-0.028529665,-0.041482344,-0.2129444,0.14296111,0.16477132,0.061970755,0.08421635,-0.13480926,0.14918719,0.07601931,-0.05532346,-0.30997795,-0.20571963,0.058726642
C,-0.077775784,-0.11267556,-0.13279678,0.123299286,-0.11550961,-0.011589507,0.12508532,-0.08576364,0.054213043,-0.059126563,0.061652478,-0.063277334,-0.03090034,0.010253681,-0.04619712,-0.2964921,-0.15904537,-0.05188689,0.0007888278,0.22278436,0.018937988,-0.067381606,-0.1002004,-0.094760336,0.017337486,-0.07633764,0.17469767,-0.048641056,0.06865134,-0.019685632,0.091361746,-0.09547766,0.24678984,-0.082887955,0.31316003,0.14619051,-0.13728957,-0.18469109,-0.39935488,0.10319676,-0.08509476,-0.21764113,-0.10513954,-0.22537906,-0.080664895,0.18221419,-0.21573046,0.19193614,0.24762824,-0.33711037,-0.042998582,-0.04555361,-0.20811696,0.1495777,0.16769508,0.057997048,0.07122357,-0.1339385,0.1568771,0.0736396,-0.04534162,-0.30682373,-0.21301846,0.061254747
