U,-0.11364201,-0.046838902,0.055232298,0.0006176946,-0.12254908,0.010793238,0.18009774,-0.18242961,0.10024774,-0.39928335,0.07165338,0.089165166,-0.1523165,-0.26390606,0.095438205,0.01096029,0.011896156,-0.14973536,-0.20782216,0.1939401,0.041899405,-0.04639237,0.24792041,-0.015274659,-0.19181976,-0.15967579,0.07819426,0.109052375,0.31660637,-0.101971984,-0.06737928,-0.041063298,0.047376927,-0.04321225,0.14759511,-0.24863784,0.1859622,0.058390275,0.009143684,-0.2013703,-0.17603531,0.062845506,0.01821686,0.1256311,0.018028557,-0.18185812,-0.045841664,0.03556147,0.28045577,0.15910506,-0.047757097,-0.16548309,0.2428096,0.29653314,-0.09462483,-0.3011209,-0.13983688,0.03755297,-0.18000205,0.17111866,0.08402538,0.038265657,0.14619255,0.2004584
G,-0.09864481,-0.041533858,0.06825995,-0.00071272935,-0.1330495,0.017013475,0.17929654,-0.19056465,0.10984808,-0.38518175,0.07215851,0.09537798,-0.14058809,-0.2654846,0.102878496,0.022595828,0.02110313,-0.13105547,-0.19796254,0.18944979,0.047213625,-0.03826206,0.23744304,-0.014765393,-0.19233069,-0.16113412,0.09090453,0.11320689,0.30489472,-0.105091155,-0.06813561,-0.051843062,0.04758859,-0.032336574,0.12944853,-0.2510889,0.19005564,0.056208115,0.0050991215,-0.20226105,-0.16471344,0.062592864,0.035009354,0.124807484,0.007710015,-0.16067185,-0.048872367,0.04448758,0.2735294,0.16640529,-0.051126,-0.1581305,0.23707952,0.2931407,-0.087012105,-0.27972284,-0.13019675,0.050566416,-0.17752035,0.17525597,0.072737776,0.043616764,0.1322643,0.20607167
A,-0.112666674,-0.041862354,0.057809573,0.0067595006,-0.12905055,0.017020153,0.18044703,-0.1947886,0.107514136,-0.39902574,0.079616204,0.086991385,-0.15572965,-0.2745095,0.10620593,0.008523021,0.01135742,-0.14662996,-0.20943515,0.19643004,0.050638944,-0.03847297,0.24783523,-0.01993498,-0.18668684,-0.16750641,0.07954693,0.09865508,0.3184245,-0.09723062,-0.07601256,-0.05159345,0.057437383,-0.035203017,0.14513458,-0.25658876,0.18408813,0.068383925,0.014440457,-0.19721578,-0.1749357,0.054390766,0.017682223,0.12902285,0.013096167,-0.17550868,-0.044697817,0.034396723,0.28231478,0.15473992,-0.04419156,-0.17159519,0.23867385,0.29989007,-0.089351445,-0.30122152,-0.13479726,0.04057205,-0.18039262,0.17294726,0.083634675,0.04843319,0.15022497,0.20238006
C,-0.1125798,-0.04057924,0.051725265,0.011303445,-0.13066426,0.022695549,0.17418489,-0.19513829,0.1075096,-0.40235582,0.0816226,0.09314457,-0.15205172,-0.27639186,0.09579022,0.013963779,0.011132431,-0.15316217,-0.20553787,0.19820623,0.047043055,-0.03955629,0.25030756,-0.013465322,-0.19767275,-0.1700968,0.076914124,0.10698676,0.31570637,-0.09525804,-0.07794272,-0.050114132,0.05142678,-0.033737794,0.14820927,-0.2497797,0.18646531,0.06731457,0.0033477983,-0.2001264,-0.17200495,0.06476788,0.01564252,0.13581531,0.02184516,-0.18175294,-0.052850537,0.03706199,0.27846977,0.15931855,-0.047998548,-0.16782232,0.24918297,0.29472512,-0.09285032,-0.30683902,-0.1328136,0.049834955,-0.1780515,0.17861639,0.08514503,0.046773408,0.15296479,0.212427
