T,0.08241339,0.046570618,-0.03499951,0.018581064,0.009766428,-0.16467366,0.07358347,-0.159606,0.0010807818,-0.093638405,0.15406471,-0.006396159,0.083890274,-0.12573719,0.12587608,0.06691601,0.095111944,0.0042856107,-0.05249399,0.062426366,0.00016018699,0.035833705,-0.0356456,0.047775704,0.04993941,0.005030055,0.019341154,0.012129327,0.022301473,-0.076632716,0.028618222,0.05394481,-0.1133776,-0.08011863,0.05908445,0.30774558,0.0397065,0.042510178,0.0452421,-0.1252278,-0.35168833,-0.22631477,-0.38877732,0.23282516,-0.16798817,-0.14696226,-0.06111985,-0.23570095,0.11330748,-0.12103033,-0.11204759,0.13228327,0.0343191,0.049846623,0.02098708,0.032553766,0.0728121,0.16162659,-0.14091825,0.052551426,-0.13401175,-0.016362982,0.0045223194,0.06606977
G,0.31964117,-0.07859016,-0.14514057,0.046897102,-0.10081083,-1.0095097,-0.10883661,-0.9578478,0.12556235,-0.268004,0.23159727,-0.020060979,0.028505184,-0.3001846,0.6113573,0.0712467,0.4858725,0.11093582,-0.4696406,0.08886097,0.070074365,0.27839348,-0.20541477,0.09824257,0.56310517,0.08497993,0.16494529,0.18424462,0.22229877,-0.79581237,0.5502971,0.49643865,-0.010531243,0.060719755,-0.037212107,-0.21785699,0.122479096,-0.32024276,0.13637976,-0.25757754,0.08177251,0.08637668,0.16636145,-0.08328734,-0.013636515,-0.02383402,0.0006347726,0.036481313,0.043481648,0.084142454,-0.014852446,0.014913676,-0.6814654,-0.7440234,-0.11851928,-0.4592289,-0.15449017,-0.07065994,0.2627347,-0.032523997,0.25576904,0.026625207,-0.12350524,-0.23741007
A,0.58694375,0.64963436,-0.200726,0.09266585,-0.17233877,0.56524277,0.22517622,0.64901686,-0.15511665,-0.044150814,0.22498308,0.06486442,0.18102154,-0.1918129,0.14694422,0.1434954,0.24946234,0.063111,-0.25577864,0.028330293,0.026452374,0.09124777,-0.06119664,0.024204154,0.1709597,0.012682244,0.067563936,0.037053816,0.029274492,-0.119695954,0.1251604,0.056720987,0.14878245,0.13041846,-0.09749277,-0.51812994,0.0645313,-0.39262912,-0.012472999,0.037944272,0.4981269,0.37677506,0.6455767,-0.38672394,0.1372234,0.15270697,0.0794069,0.22678523,-0.21640098,0.21263535,0.2084393,-0.24678876,-0.14988925,-0.18018699,-0.04780062,-0.11338432,-0.12871236,-0.30710417,0.25122678,-0.09964891,0.21060385,0.02388741,-0.040630754,-0.13657452
C,-0.65507996,-0.87159455,0.22278784,-0.12558867,-0.11051611,-0.4892815,0.0043529435,-0.432388,-0.040046923,-0.31888995,0.522513,0.023343548,0.44218516,-0.64244705,0.67524844,0.3648264,0.8573086,0.13400294,-0.71557665,0.2836657,0.06312598,0.27833134,-0.20524228,0.17269528,0.64933723,0.08288176,0.21697749,0.1846382,0.25532803,-0.9249309,0.68029255,0.56075346,-0.26953626,-0.108985946,0.11308333,0.5572329,0.046662737,0.22740923,0.16748926,-0.34865063,-0.55394083,-0.4153106,-0.6868963,0.43215117,-0.044573788,-0.12684882,-0.07337767,-0.06307901,0.22177085,-0.086584836,-0.18407391,0.21665734,-0.9568407,-1.0295204,-0.13666016,-0.6327695,-0.027081111,0.76071155,-0.05340847,0.22057734,-0.33889928,-0.05000035,-0.2067582,-0.04444344
