4250 64
383 0.06262352 -0.05335596 -0.063438304 -0.07102906 -0.05651282 -0.07197543 -0.036705885 0.054724716 0.08274776 0.04180794 -0.047730103 0.035507504 0.07725628 -0.042718187 0.049564287 -0.05131035 -0.0023081405 0.06257866 -0.070158176 -0.056934 -0.041819625 0.023229498 -0.040523652 0.07112709 -0.023588888 -0.079477176 0.066323586 0.010718372 -0.082818925 0.050993253 0.018550295 -0.08564379 -0.016840145 0.014257195 -0.036201786 -0.024966564 -0.005524384 0.017453616 -0.01387352 0.036580514 0.06002043 -0.031622194 0.0051873215 0.02419303 0.006542817 0.012794498 0.0507847 0.056115404 0.015317759 -0.07820881 0.022066852 -0.03506083 0.04403671 -0.044411715 -0.038389232 -0.009684017 -0.019487545 0.051917937 0.016168395 0.020374542 -0.037573345 0.017732566 -0.07342491 -0.057716586
hsa-miR-612 0.07342078 -0.04324212 0.044821206 -0.034599327 0.054965608 0.004070212 -0.03541677 0.025640808 0.0099255955 0.079086006 -0.077210076 -0.031722873 -0.0444316 0.04880591 0.059319176 0.0086472295 -0.07909484 -0.04803315 0.041352995 0.07493965 -0.07121226 0.04305049 0.05524964 -0.057731204 -0.04066634 0.07159911 -0.020242974 0.076283924 -0.043451674 -0.01774393 -0.011451954 -0.05826991 0.01925807 0.07418719 -0.03957339 -0.042514846 -0.07705521 -0.07656635 -0.018293459 0.030306451 0.02800493 -0.039850313 0.021917298 0.035694562 -0.076065086 0.049568806 0.0014599459 0.06599148 0.05518799 0.026243106 0.014459883 -0.04755501 0.034161963 -0.019654797 0.029264102 -0.03801154 -0.044408847 0.052050926 -0.050365657 0.050151758 -0.019284358 -0.048361674 -0.07855954 0.03597158
hsa-miR-6860 0.07168224 -0.059835248 -0.022978047 0.07077823 -0.04713507 -0.080229685 -0.053943813 0.025047641 -0.020807993 0.024991058 -0.07802191 -0.008522299 -0.032325618 0.07878076 0.03504599 0.01773322 0.044956796 -0.057078954 0.045359336 0.01509211 0.06873663 0.05121757 0.06578257 -0.074490234 -0.06588252 -0.0032504126 -0.042611897 0.025835542 -0.002653114 0.058728363 0.07739723 -0.05426222 0.045809325 0.013598047 0.013448271 -0.05971765 -0.06561418 -0.03693493 -0.041717716 0.053451937 0.0679058 0.050129484 0.06493404 -0.058629565 -0.015212456 0.06645286 -0.036104165 0.054714233 0.008824072 0.02049657 0.04143473 0.03773067 0.020260725 0.043232366 0.018618526 -0.048867226 -0.035288323 0.060159683 0.04074189 -0.08085558 0.07556072 -0.024792932 -0.07404158 -0.0027327472
1802 0.08330157 0.037965935 0.059749328 0.02310408 0.031701367 -0.055322077 -0.042083263 0.025075115 0.04661314 0.053170793 -0.032456342 -0.082197316 0.019538429 -0.02729705 0.022353854 0.063151106 -0.015808024 -0.02082209 0.0816206 0.060800925 0.0428383 0.03217216 -0.05418346 0.010778189 -0.07024195 0.056307554 -0.016969662 0.04361076 -0.054290146 -0.06284159 -0.077326946 -0.0154279135 0.021985024 0.038729355 0.024890082 -0.06903344 -0.086456336 -0.073930115 -0.012770124 -0.06969761 0.019683706 -0.06482903 0.061271034 0.07618937 -0.025247356 0.020241229 0.029145146 0.05289217 -0.019837774 0.06338852 -0.062612385 -0.050502792 0.084480725 0.050064154 -0.04539711 -0.022604574 -0.010258899 0.025097424 -0.043042578 0.067512125 0.041909017 -0.06528127 -0.067635655 -0.022431508
hsa-miR-3619-5p -0.04856427 0.055407032 0.06324047 0.044358958 -0.02065878 0.048556082 -0.070678696 -0.04336129 -0.030676112 0.05210839 0.026037341 -0.053889327 -0.050978206 -0.049757816 -0.014508223 0.052913837 0.04611998 0.028318292 0.065190926 -0.055215236 0.029914413 -0.048949227 -0.068528496 0.056650206 -0.057417594 0.073044404 -0.067518026 0.058221683 0.05093185 0.05210401 -0.04478512 0.05001037 0.05955297 -0.06441313 0.04331675 -0.04254082 0.077612996 0.079563804 -0.04788769 0.043935634 0.023584265 -0.047263827 0.034799628 0.06231201 -0.060385246 -0.036268886 0.054141153 0.032946944 0.06518408 0.022998884 -0.05279467 -0.06578046 0.06954192 0.04929832 -0.0530468 0.044986594 -0.062740475 0.009270125 -0.05192188 0.03381718 -0.06409902 -0.055350102 0.05180467 0.036548063
3362 0.049912006 0.06658502 0.019800244 0.02315062 -0.057789177 -0.058890153 -0.059599996 0.028330453 0.08644053 0.08123345 -0.023055568 0.034711797 0.017129906 -0.031943925 0.08573101 0.034467466 -0.0542705 0.059299946 0.034200355 -0.028134745 0.014969497 -0.03432919 0.08525094 0.043834195 0.08531367 0.064986125 0.022372052 -0.041036442 -0.05390273 0.068177894 0.021429926 0.010066036 -0.0068234922 -0.04209126 0.029351741 0.022299392 -0.03998768 -0.040004738 0.08735619 0.050633848 -0.01821277 -0.04191432 -0.022402205 -0.05140491 0.07220166 -0.07801782 -0.03564054 0.074524105 0.06495673 -0.009481451 0.04489007 -0.08462478 0.085144386 0.020084858 -0.013795583 0.06721618 -0.03213421 -0.07166755 0.046506517 0.044719357 0.05274968 -0.03755157 0.016474187 0.048541486
hsa-miR-5193 0.036879428 0.076000586 -0.01891031 0.055674337 -0.059686415 -0.063767664 -0.03679719 0.048936352 0.076437294 0.0571077 0.024074676 0.044364043 -0.02050266 -0.040678397 0.068434715 0.0033357735 -0.020301217 0.05253226 0.046526924 -0.03376559 0.07541581 -0.027099352 0.058597546 0.072625495 0.07271768 0.0814526 0.035294656 -0.046840694 -0.07938075 0.055316318 0.013835189 0.020487212 -0.033022128 -0.028506093 0.040240444 0.07964853 -0.026456878 -0.07568884 0.07667114 0.047496945 -0.0745106 -0.07567203 -0.011364559 -0.055536382 0.033325326 -0.05550067 -0.06944453 0.068648756 0.05796694 -0.024066381 0.08279452 -0.052538518 0.070889145 0.03943073 -0.052194096 0.07889937 -0.056852974 -0.05430525 0.052545656 -0.029743683 0.03806372 -0.027998596 0.07421674 0.04250133
489 -0.024160553 0.014503241 -0.012569575 0.057827853 -0.084863715 -0.07529561 0.08259721 -0.025619904 0.03945493 -0.07734217 -0.06522751 -0.08541043 -0.025054473 0.040872768 -0.077356875 -0.013759346 -0.0099095395 -0.082507655 0.010002131 0.040167287 0.022886282 0.027490627 -0.044463597 0.07801485 0.05700168 0.024262387 0.052230507 -0.028180387 -0.07489904 -0.07488772 0.0024407674 0.036075313 0.028182171 -0.039780244 -0.02720401 -0.05972597 -0.016596857 -0.07505444 -0.07078256 -0.040368654 -0.04100714 0.045324422 0.02649926 0.05555023 -0.034725912 -0.06664613 -0.041195277 -0.07483434 -0.014826358 0.025481356 0.07279918 0.05354176 -0.04804212 -0.014194058 0.004338277 0.047336172 0.030869268 0.040603295 0.0735475 0.013102104 -0.046733 0.022082252 0.028103897 -0.035386156
hsa-miR-1304-5p -0.011262546 -0.06669227 0.04106638 0.04267952 -0.0675443 -0.016454771 0.074619934 0.033391695 0.014221027 -0.016517455 -0.03136125 -0.050032154 -0.013504652 -0.0074513955 -0.030312095 -0.0023694555 0.052975714 0.0066087265 -0.08093427 0.041040853 0.08270354 0.047847368 -0.02702276 0.08185961 0.043540448 -0.071329474 0.05060751 0.054360915 -0.036157355 -0.08095117 0.060350858 0.00093302224 0.023648154 0.035525836 -0.0062043155 0.07944883 -0.023683364 -0.05290695 -0.042195324 -0.08329085 -0.08052282 0.026110234 0.072977304 0.04149527 -0.03716211 -0.048422694 -0.07614079 -0.048177462 0.036953505 0.04303208 0.043878965 0.079268515 -0.07606803 -0.017153963 0.018014893 0.06600223 -0.032783747 0.05999492 0.034297377 0.00069370307 0.03025185 0.04519505 -0.058161806 0.0003337115
365 0.048381127 0.008223257 -0.08294022 0.050382067 0.016119279 0.008308848 0.036509488 0.027982667 -0.06979368 0.06823736 -0.012045419 -0.00885272 -0.023185361 0.064812705 -0.059049014 0.06793163 0.033953197 0.035878506 0.071071416 0.05013558 0.027699016 0.01841909 0.054981943 0.07886598 -0.01533265 -0.06785855 -0.06976193 0.071685515 -0.06348434 0.07924403 0.0066640466 0.0149569325 0.009626567 0.07420367 -0.020411868 -0.076806694 0.056037746 0.031693637 -0.04951739 -0.08387898 0.08223265 -0.04187042 0.08475987 0.023832431 -0.059747145 0.007857714 -0.066840716 -0.070621446 -0.075321555 0.016721731 0.045586497 0.0054280185 -0.039868318 0.062339455 -0.07815073 -0.06969969 0.06417421 0.012290037 -0.011735235 -0.03319033 -0.04973998 0.06534156 -0.05415724 0.03053496
hsa-miR-4498 0.06463352 0.070248984 -0.049023267 0.043423533 -0.049924687 -0.014473819 -0.0349508 0.020054437 -0.051367808 0.039237857 0.047228146 0.046210803 -0.015968326 0.039534044 0.0797814 0.045714233 0.07756684 0.06892811 0.047065273 0.02463705 0.049388126 0.06103945 0.028434008 0.07568284 0.056889582 -0.018998835 0.037785485 0.045003846 0.056121767 0.067746334 0.04227661 0.06070336 0.05444547 0.01361996 -0.04892879 -0.018590193 0.04688865 -0.024027796 -0.049319558 -0.056525216 0.055397436 0.072807334 0.037591882 -0.03548441 -0.045786623 -0.0336492 -0.080835745 0.031144522 0.011237213 -0.032008708 0.033033412 0.04260628 -0.08066763 0.054793075 -0.025471427 -0.044229515 -0.024195634 0.03971933 -0.055095084 -0.05670998 -0.077728115 0.041635454 -0.057493538 -0.061834097
2312 -0.024037823 0.010803322 -0.02771626 0.07276841 0.08217757 -0.08212063 -0.04379598 0.025685005 0.040066607 -0.037884254 -0.06735504 -0.07732712 -0.02185576 0.07550878 -0.019873325 0.038391944 -0.032634757 -0.032236516 0.0080496315 0.019449167 0.078250974 0.021922186 -0.0050099255 0.06419796 -0.02001744 -0.069571555 0.07258926 -0.043061048 -0.023929646 0.06464185 -0.0679328 -0.028079867 0.07016635 -0.018707465 -0.024380438 -0.0072001917 -0.038191408 0.057972483 0.070197105 0.041642044 0.039865423 -0.015951304 0.07973589 0.08408424 -0.017808516 -0.08614953 -0.07931489 0.0640644 -0.04963605 0.073098086 -0.029518783 0.029246684 -0.023033699 -0.06642681 -0.04236029 -0.038737517 -0.022805892 -0.07203816 -0.042614147 0.030798715 -0.031767216 -0.03103595 -0.07005934 0.06282379
hsa-miR-181d-5p -0.07008667 0.01881047 -0.018035889 0.054474697 0.039414532 -0.06706889 -0.055694714 0.05437744 0.05680974 -0.025001377 -0.06905734 -0.047407188 -0.0524417 0.033626724 -0.04924228 0.049894106 -0.060187966 -0.024005774 0.023430306 0.051774237 -0.013495105 0.05904923 -0.030762244 0.052185804 -0.044333793 -0.08193296 0.07344695 -0.07284474 0.04138347 0.033678494 -0.05004663 -0.047286622 0.035813842 -0.040119268 -0.05951992 -0.019494686 -0.051777065 0.06680878 0.023821702 0.029472819 0.058279358 -0.033553794 0.061225597 0.0798754 0.037895266 -0.06926835 -0.07652335 0.07763072 -0.05709806 0.08475703 -0.047409646 0.07196113 -0.05438876 -0.055688675 -0.058574893 -0.056538783 0.024701431 -0.062154014 -0.073568165 0.059723586 -0.058240682 -0.055836603 -0.0701276 0.05658872
2329 0.014951776 -0.022251142 -0.07367426 0.022300705 -0.07628338 -0.041320898 0.050485015 -0.05215431 0.071611956 0.049196783 0.012609856 -0.081556536 -0.04002185 -0.028197724 -0.019412477 0.07087329 -0.077193156 0.054374285 -0.056246236 -0.08411578 -0.045170758 -0.029876485 0.029230012 0.056686234 0.025636263 -0.034604453 -0.031314332 0.07007409 -0.012590832 0.021379398 0.051172867 0.0719639 0.03746192 0.03655968 0.025965372 -0.019727595 -0.072034076 -0.08531914 -0.024593718 -0.04078731 0.016640283 -0.036039893 0.02977488 0.06851419 -0.06587439 -0.080775484 -0.051235463 0.003478981 0.0086720325 0.07138614 -0.08000872 -0.06037527 -0.07964741 0.007914382 -0.059041236 0.052930243 0.064865366 -0.042090792 -0.008560225 0.017454484 0.046457652 -0.046737142 -0.016375206 -0.0653055
hsa-miR-208b-5p 0.0353759 -0.058531404 -0.074522495 -0.00374866 -0.017408352 -0.014971819 0.06355056 -0.0690151 0.04937324 0.030182343 0.055604864 -0.033122692 -0.024609406 -0.014375545 0.004981785 0.052046888 -0.08616132 0.070276394 -0.053251334 -0.03333883 -0.04948475 -0.05913141 0.057003353 0.018271718 -0.021506265 -0.070138134 0.018488431 0.05497046 -0.0010921548 0.028202906 0.0650464 0.017801847 0.029671941 0.044543467 0.056270357 -0.02178635 -0.06931231 -0.058007207 -0.032712236 -0.039874434 0.05327967 -0.018808525 -0.023255853 0.084718496 -0.06495208 -0.07341831 -0.073258586 -0.037747946 0.028051104 0.054894112 -0.08374303 -0.061288316 -0.039910104 0.009740213 -0.06524139 0.05424983 0.066969395 -0.030896667 0.030307557 0.0079003405 0.061690293 -0.026593499 0.015441253 -0.07774267
3026 0.038801685 -0.07910443 0.0021530143 0.017285312 0.07559621 0.013319446 0.0673524 0.027116831 0.06450419 0.057516914 0.07726058 -0.05693454 -0.06833471 -0.022990473 0.062450845 -0.054766912 -0.0694493 -0.055824455 0.04203373 -0.03213171 0.07568293 0.07985539 -0.07792977 0.044704072 0.045790825 0.026638992 -0.06537557 -0.04558524 0.005459863 -0.023208909 -0.016635844 -0.064796664 -0.050289806 -0.0755005 -0.018385261 0.012881793 0.043073084 -0.05594869 -0.038178783 -0.06764282 0.05422643 -0.024651755 0.066417634 -0.056274407 0.05152518 0.018751822 -0.07608227 -0.04906027 0.010709515 0.04717288 -0.07531986 -0.021725139 -0.014257096 0.020124977 0.034413267 0.024391977 0.026137397 0.074923255 0.07437932 0.032271888 -0.016785346 -0.05392164 0.084841855 0.046907283
hsa-miR-5787 0.04574525 -0.08098059 -0.05372416 0.034506455 -0.012106965 -0.06234197 0.06911514 0.05057134 -0.011510991 -0.05781634 0.0037599886 -0.06915818 -0.0635393 -0.010893052 0.021635242 -0.06374632 -0.05824471 -0.071990944 0.08187739 -0.04804432 0.04978048 0.05433131 -0.014206262 0.038905565 0.05775667 0.050952934 0.03594397 -0.07458545 0.0044064587 0.01648138 -0.068853155 -0.06912733 -0.070427865 0.034945354 -0.043374207 -0.03891823 0.057494774 0.05128763 -0.040297862 -0.059954062 -0.017511297 -0.06581306 0.07590264 -0.058689877 0.06817279 0.061353497 -0.038624387 -0.054475397 -0.030444045 -0.07540508 0.03217392 -0.07148962 -0.049369037 0.05368492 0.0529858 0.021089058 0.06074984 0.065097764 0.06303918 0.02716 -0.050367966 -0.084139585 0.07470795 0.02676114
3270 -0.056811992 0.013458173 0.051830504 -0.005698718 -0.011671313 -0.024971902 -0.03013084 -0.022933718 0.059830397 -0.016759368 -0.07254051 0.06960812 0.075566344 0.07689739 0.061094612 0.015826222 -0.06968629 0.048332825 -0.046866544 -0.08215759 -0.07836785 -0.08294748 -0.057309404 -0.075054914 0.07346591 -0.07150066 -0.039234303 0.00891406 -0.062857926 0.05967138 0.028041076 -0.07338111 0.0447703 -0.0061781886 -0.021051371 0.03641039 -0.008949314 -0.022676188 -0.048797566 0.06947325 0.003371195 0.040464573 -0.054730017 -0.05682504 0.07996659 -0.06192345 0.028225835 -0.010942621 -0.06358654 0.05041313 -0.07938744 0.052837655 0.06441916 -0.02610777 -0.040126447 -0.06661976 0.04264605 0.05470739 -0.028704345 0.04663597 -0.018392675 0.04396403 -0.029764254 -0.016463459
hsa-miR-181b-2-3p -0.035250895 0.037982814 0.042606544 -0.0065843095 -0.03551794 -0.073166706 -0.050179154 -0.048494175 0.06554738 -0.00803853 -0.064764075 0.081413195 0.08507819 0.055922236 0.07953955 -0.024931995 -0.06346829 0.051111463 -0.050028816 -0.05516906 -0.045901697 -0.04618595 -0.02516113 -0.046382666 0.021514107 -0.021562029 -0.035984494 -0.060315747 0.0007378068 0.022356054 0.05994452 -0.082904324 0.056935422 -0.026625 0.019339982 0.023384687 0.07184311 -0.06622057 -0.06674964 0.06958545 0.07301075 0.05870656 -0.08216679 -0.047102563 0.08076822 -0.0694259 0.047093913 0.028323969 -0.050280537 0.060395032 -0.03087357 0.067555584 0.02397792 -0.072259985 -0.063489005 -0.038972337 0.05315344 0.037649482 -0.024015002 0.048093636 -0.0037122075 0.07574863 -0.06452607 -0.024972394
3360 -0.06382958 0.06842126 0.06750163 -0.07461393 0.043679163 0.066283315 -0.08294 -0.07399768 -0.0429967 -0.044203367 -0.0729278 -0.024013642 -0.07917641 0.029560689 0.028271496 -0.063334115 0.03841384 -0.02239858 -0.050106063 -0.038199022 0.039579786 0.005863887 0.084309414 0.06881837 -0.053185306 -0.051841874 -0.011710042 0.04837004 0.082977585 -0.07689295 -0.07068995 -0.026761277 -0.016742263 -0.06808826 -0.06099031 0.070057 0.08222372 -0.019559767 -0.04101841 0.057370614 -0.023297194 0.029122222 0.0077735996 0.035291933 0.03193368 0.012617042 0.02234143 -0.026853994 -0.02431935 -0.05974547 0.08701514 0.013244685 0.06665157 0.08487119 0.049247682 -0.02890556 -0.005246219 0.055822514 0.031014122 -0.07258168 -0.057154797 -0.038957298 0.074243166 -0.06953811
hsa-miR-4668-5p -0.06841044 0.053719655 0.07192449 -0.053600498 0.08154888 0.075341135 -0.055018995 -0.049412176 -0.07225793 -0.057424285 -0.07009987 -0.042456027 -0.056004185 0.028107448 0.055723444 -0.07274211 0.06833188 -0.048146397 -0.036286056 -0.0435377 0.020308644 0.013597524 0.037044775 0.05025158 -0.0630402 -0.03365281 -0.03783757 0.051772535 0.07175414 -0.07436689 -0.06253721 -0.0527571 -0.044494614 0.0115859285 -0.059960615 0.07926472 0.055400327 -0.07697824 -0.057355784 0.080377325 -0.024657242 0.03700568 -0.040440384 0.07252155 0.0099019045 0.05037368 0.02377764 -0.0011323458 -0.01821414 -0.045355745 0.08276181 -0.023826404 0.06281799 0.07419705 0.037742514 -0.026671842 0.04108645 0.05701918 0.061746933 -0.030092578 -0.058281533 -0.0680778 0.061432116 -0.07631564
632 -0.037223034 0.034482405 -0.07170021 -0.01205208 -0.039651133 -0.037531838 -0.037995595 -0.03330078 0.008481134 0.060232583 -0.07743025 0.01456917 -0.026036259 0.028425049 0.013375528 0.043411043 0.024541829 0.03446167 -0.054975886 -0.02369422 -0.010794245 -6.142445e-05 -0.06214367 0.02951695 0.031548228 0.019894868 0.053132623 0.042310886 -0.04580151 0.028151104 -0.07073852 -0.02517702 0.03832802 0.045684166 0.044336192 -0.02468983 0.0076097604 -0.07066378 0.021559326 0.046940073 -0.065016225 -0.0753749 0.032302868 0.014203827 -0.049044 -0.05903925 -0.0359804 0.01978914 0.024442565 -0.05108665 0.020126397 -0.049246233 0.034338243 -0.04350507 -0.065926865 0.08323394 0.011224456 -0.081747174 0.04795663 0.050139762 0.02155488 -0.01670351 0.05344003 -0.042688683
hsa-miR-4691-5p 0.056837514 -0.048879005 0.0323372 -0.05609071 -0.06469114 -0.05431991 0.011107856 -0.06878446 -0.021542035 0.044114545 0.03452927 0.056355603 -0.067850314 0.025271198 0.04749584 0.071151495 0.016793905 0.07824553 -0.048307713 -0.07427615 0.02095399 -0.030547943 -0.021554168 -0.0462664 0.072409295 -0.017797215 -0.0342916 0.054993067 -0.048040193 -1.8421095e-05 -0.057979345 -0.030392703 0.063697934 0.07759781 0.012836048 -0.055239897 -0.03616014 -0.048986383 0.060017776 -0.03715951 -0.071889594 -0.053113926 0.06597148 0.048414662 -0.035672218 0.023622181 -0.022609934 -0.05478136 0.07006336 0.02577925 0.016996127 0.032475173 -0.06028965 -0.057779368 -0.051097713 -0.029647872 0.07388139 -0.041212045 0.01796439 0.056456096 0.016361553 -0.055795368 -0.04669595 -0.0798302
1921 -0.075818524 -0.052305497 -0.070898496 0.075807914 -0.0085548535 -0.07543116 0.05980073 -0.08344262 0.0052180747 -0.06404888 0.012511304 0.024047187 0.050159533 0.011934502 -0.04509073 0.015631424 -0.046886902 0.056645002 -0.028902289 -0.016272467 -0.024817312 0.0057210117 -0.028996827 -0.04549962 -0.05465284 -0.061456423 0.07768807 -0.08008346 0.0064163585 -0.055430688 -0.0028719855 -0.018359784 -0.07891356 -0.03789891 0.014270059 0.025067512 0.038698163 0.03764358 0.03735347 0.016858302 0.018641036 -0.0067532347 0.030705867 0.07888608 0.056160353 0.08238928 -0.049122922 0.059718363 -0.08377315 0.036505416 0.046870124 -0.04094455 -0.048040375 -0.049765926 -0.018594515 0.028526487 0.06306736 0.08145341 -0.043694183 -0.037253913 -0.036891963 0.035385385 0.05084619 -0.05934786
hsa-miR-1915-5p -0.027549244 -0.07826188 -0.032366447 0.06402791 0.07567516 -0.038768426 0.032014567 -0.03319095 0.0035641445 0.011459108 0.027862197 0.022595096 0.04886536 -0.04279121 -0.034243815 0.040924326 -0.047683604 -0.030083943 -0.071743704 -0.0017113006 -0.07144143 -0.013720138 -0.057673853 -0.02619335 -0.076761596 -0.035229187 0.065600894 -0.07170824 0.06007596 -0.018125664 0.03522964 -0.011606797 -0.048785143 -0.058093853 -0.01709074 -0.06328837 0.05800288 0.042146064 0.052154988 0.02879115 0.076400995 0.07577104 0.064625494 0.073914334 0.028948894 0.014157145 -0.0128534855 0.008755631 -0.07464768 0.06363079 0.007427701 -0.08090194 0.015902476 -0.052867334 -0.03120255 0.025759311 0.038308974 0.07210623 0.0539599 0.012466067 -0.014999866 0.0099417055 0.06628433 -0.04518401
3404 -0.010003591 0.03723804 -0.08393532 -0.037796784 -0.07353951 0.0154031655 -0.0784221 0.037931725 -0.06729272 0.050205477 0.06350456 -0.032925725 -0.054353073 -0.0139724715 0.015405214 -0.02445247 0.07666928 0.033382036 -0.0042240946 0.07445791 -0.009494797 -0.07154736 0.070294894 -0.05501485 -0.0125179915 0.0260315 0.06688078 0.059673365 0.053549625 0.04876383 0.07856356 -0.07505773 0.04162021 0.082904056 -0.070972666 -0.07675551 -0.082580455 0.03476168 0.062453996 -0.052024145 -0.064389504 -0.022167802 -0.012515895 -0.038788732 0.08533822 -0.005338344 -0.020941824 0.054104254 -0.037491485 -0.06733448 -0.056073636 0.069402486 -0.0025244663 -0.024772227 -0.078513816 0.073747136 0.013694877 -0.027959958 -0.053149033 -0.052662604 0.07127195 0.06326334 -0.0010080151 0.050204948
hsa-miR-4739 0.02502828 0.030121123 -0.07927406 -0.043813698 -0.064534605 0.06906085 -0.04775176 -0.05947982 -0.07867956 0.050016977 0.05938766 -0.07750638 0.055872492 -0.07475705 -0.023783337 0.047519542 -0.05275931 0.025651734 0.041421615 0.083022356 0.05026934 -0.05761628 -0.034789305 -0.07704951 0.010896237 0.048847683 0.058903996 -0.046681587 -0.055604216 -0.0362889 -0.075743385 -0.059141025 0.0662228 0.038194638 -0.07679645 0.006975717 -0.034633845 0.028423116 0.07904574 -0.037900113 -0.06167543 0.030492969 0.073968366 -0.08105904 0.032683067 -0.026809476 -0.030827101 -0.07143805 -0.05074546 -0.042701002 0.06095242 0.07153185 -0.059806064 -0.0267478 -0.046058476 0.034411207 0.029851653 -0.07555942 -0.054446883 -0.06441653 0.02487402 -0.043151014 0.025403619 -0.058091655
1126 -0.03745635 0.07929663 -0.0544424 -0.013510876 0.068433076 -0.06688172 -0.07218067 0.08348996 -0.048149068 0.068365484 -0.029691067 0.0756946 -0.055632442 0.07287286 -0.06025868 0.052072547 -0.037039477 0.0411298 0.04541236 -0.06282376 0.07017869 -0.07294378 -0.062959045 0.04798283 -0.03904158 -0.059833035 -0.068180546 0.058582082 0.0112684155 0.04219299 -0.043176696 0.06592488 0.015814677 0.015899424 -0.022653148 -0.04088769 -0.07341125 0.07679321 -0.08151366 -0.08295155 -0.022147883 0.032817878 0.028385734 0.03895559 -0.023738941 -0.034204535 0.061104335 -0.022804398 -0.043933596 -0.041838188 0.03900852 0.052198775 -0.015829911 0.0786287 -0.04645235 -0.007357643 0.018988382 -0.0066341157 -0.013154626 -0.007243825 -0.040584657 0.008828314 -0.0136084715 0.0018905457
hsa-miR-4733-3p -0.041464414 0.04736478 -0.05505695 0.042597637 0.06034945 0.0047928514 -0.069736294 0.071640134 0.0064341305 0.056394245 -0.05262163 0.07992203 -0.04516112 -0.013034882 -0.07778913 0.0390842 -0.061554868 0.0726924 0.07792767 -0.06940028 0.05701609 -0.040197425 -0.052320026 0.075855605 -0.03079554 -0.07365594 -0.070532344 0.06387707 0.041572273 0.056213498 -0.068778224 -0.014337556 0.04484681 -0.0007431996 -0.019548476 -0.03969216 -0.004187514 0.044873722 -0.07077663 -0.08167356 -0.06098464 0.08461931 0.06721166 0.008593444 0.022145506 -0.04311309 -0.016111434 -0.061635423 -0.0803195 -0.012906866 -0.031447005 0.023909211 -0.050316706 0.059341412 -0.064073354 -0.01341939 -0.021187523 0.02437133 -0.07133991 0.04245378 -0.044584945 -0.005318679 -0.06361957 -0.044768486
1163 -0.057991646 0.037364677 -0.07249997 0.03855498 -0.011528356 -0.017970245 0.022259966 0.07789053 0.07600722 -0.012964172 0.012990279 0.04433231 -0.07036756 -0.02022156 0.064189166 0.042254288 0.030965341 0.07397557 -0.043080155 -0.03139145 0.03827578 0.020608991 0.076048076 -0.028561765 0.016410721 -0.08628939 -0.06311201 0.055922348 -0.045000378 0.05505948 -0.026330162 -0.010513434 0.040404096 0.06964908 -0.04818681 -0.08195125 -0.0090452 -0.06654193 0.068817146 0.07324293 -0.03839229 0.06847638 0.002212454 0.08516817 -0.03143094 0.018505592 -0.07443552 -0.049734537 0.013024321 -0.086563006 -0.025690382 -0.018279737 0.038066294 -0.06658687 0.03101813 -0.07043148 0.06650868 0.028634295 0.028182779 0.043620415 0.06804967 0.013814272 -0.052382864 -0.024493689
hsa-miR-6893-3p -0.03920895 0.050627403 -0.06305852 -0.051659305 -0.07873068 0.004650815 0.03942252 0.081938975 0.023184374 0.025513828 -0.027627371 0.062850885 -0.080316916 0.0398462 0.053070128 -0.02746274 0.0005664412 0.060120393 -0.08252975 0.030617112 0.07526702 -0.060847558 0.049097694 0.06457763 -0.056393534 -0.026584182 -0.04496332 0.031484023 -0.07071103 0.045097284 0.055473685 -0.05010725 -0.035661787 -0.07841379 0.030558897 -0.04770191 0.016546655 0.0033942326 0.018070996 -0.03461216 0.07587435 0.023195118 0.077725485 0.014280474 -0.019571926 0.038935393 -0.060850218 -0.036534466 0.07636637 -0.05323052 -0.024550188 -0.07608978 -0.051688783 -0.061921313 0.004734154 -0.06389385 0.055028796 0.07182208 -0.04138268 -0.047684453 0.082932964 0.0053204447 -0.03502558 -0.024437431
3458 0.06521911 0.06536229 -0.046677373 -0.0146727385 -0.08608988 0.020064328 -0.04056945 -0.030565567 -0.06322357 0.033039086 0.046228558 -0.057853878 0.045513168 -0.037470676 -0.04682008 0.07748004 -0.04545239 0.0020530815 -0.0012608236 0.060605176 0.03438533 -0.032828625 -0.017632972 -0.071223825 0.004262807 0.03487853 0.037232917 -0.016465072 -0.081721835 -0.029349528 -0.085951045 -0.056954905 0.08181602 0.038183305 -0.07596043 0.008741483 -0.01932238 0.037305932 0.036368594 -0.07324683 -0.07853321 0.06272622 0.08572712 -0.03600242 0.02199164 -0.06516941 -0.06812047 -0.04022645 -0.06402343 -0.06481165 0.033577293 0.049814638 -0.026692895 -0.018360648 -0.013995618 0.06708185 0.009592138 -0.028646562 -0.033017255 -0.048439506 0.046306413 -0.028509222 0.0015550908 -0.075860865
178 0.06362264 0.08053508 -0.052780803 -0.0029028067 0.08416699 -0.07452735 0.032726474 0.05268182 0.008291081 -0.04601392 0.03536941 0.07446172 -0.04554382 0.044556875 -0.06368316 -0.07134256 -0.07863152 -0.052379467 -0.08581517 0.038083218 -0.046063095 0.057828 -0.06286727 0.08102262 0.063061014 -0.060234018 0.020286106 0.03476342 -0.039184052 0.07706822 -0.016599417 0.04228301 0.0031269668 0.06885709 0.023481028 -0.036310058 0.028909504 -0.03860355 0.04706229 0.041879695 -0.083957486 -0.056643017 -0.052350536 -0.0403097 0.023315087 0.049205698 0.05722956 0.07023329 -0.006826385 -0.019076515 0.06812761 0.010587618 0.046590112 -0.057157815 -0.02633108 -0.0185626 0.052488454 0.049756844 -0.0839015 -0.07547127 -0.043536607 0.023891026 0.0028836913 -0.073415235
hsa-miR-6089 -0.04946064 0.022775585 0.07570979 -0.023704145 0.007859867 -0.045788463 0.08463603 0.036174178 -0.08175892 0.004063982 0.029929446 0.049551785 0.018261809 -0.07720642 -0.038424376 -0.0145634655 0.07498587 -0.005908111 0.07902383 0.06344701 -0.07673683 0.043728143 0.0738408 -0.020777069 0.053310383 -0.061271146 -0.08182861 -0.045525193 -0.04156495 0.08125036 -0.06341902 -0.03759536 0.08413309 0.01367614 -0.027422924 -0.049237065 -0.04688331 0.031103764 0.04996626 -0.0723211 -0.05468276 -0.05253253 0.034712277 -0.04001333 0.052198213 0.028987795 -0.07262444 0.0035086563 0.01978264 -0.034494504 0.054092124 0.047003545 -0.07222503 -0.06645174 0.03384877 -0.07171153 0.0794951 0.06312507 0.06802071 0.006312522 0.052080266 -0.07426804 -0.058533695 0.051504906
17 -0.051358663 0.020432368 0.07789149 -0.07713783 0.047398813 -0.023445077 -0.05256748 -0.053781647 -0.07104555 0.043073848 -0.028995361 0.039874837 -0.08373288 -0.07964685 0.03957438 -0.03853821 0.081673644 -0.036415957 0.08261013 0.03324709 0.03852896 0.04615313 0.018531047 -0.071695104 0.07515601 0.001289369 0.03321768 0.056918412 0.050560005 0.020572595 0.019550879 -0.06651689 -0.009294678 0.07098286 -0.04560538 -0.050127845 -0.07495598 0.0769774 -0.04304137 -0.048248876 -0.027000442 -0.056075387 -0.018411454 -0.0642715 0.004854144 0.04177562 0.058118798 0.008704979 0.0042856126 0.023713727 0.027448915 0.04714522 -0.059848033 -0.03963477 0.08171181 -0.04695312 0.06679081 0.028769743 -0.06891204 -0.054602683 0.048319206 -0.039438482 -0.026853729 -0.043236393
hsa-miR-637 -0.07931787 0.050152294 -0.0015944149 0.040118266 -0.07530212 -0.071462594 -0.035060577 -0.059056606 -0.06416449 -0.057612382 0.070059344 -0.032406405 0.017423106 -0.045712452 -0.055033665 -0.001630228 -0.044414777 0.01894036 0.04993406 0.055310324 -0.065415874 -0.016814386 -0.008924046 -0.038002785 -0.07696558 0.07148677 -0.06813352 0.0075259907 0.04040193 0.0436192 -0.075085014 -0.0492146 -0.061526693 0.076143004 -0.052672073 0.048007373 0.05143991 0.07844227 0.04253411 -0.04762077 0.047064 -0.077185735 0.017586691 -0.03839738 0.07746682 -0.050478756 -0.028199945 -0.080888264 0.03399917 -0.07879151 0.04642023 0.01097003 -0.05263345 0.03466423 0.01674861 0.037224628 -0.05316953 -0.028714202 -0.043752395 0.034967683 0.021641394 -0.052944366 -0.04299506 -0.005390528
2661 0.051004276 -0.08478454 0.043044563 0.083043195 0.012358401 -0.029603377 -0.05240283 0.06431904 -0.07488989 -0.082328394 -0.023960887 0.079063915 0.023139104 -0.025992015 -0.07109854 0.046614595 -0.06401828 0.037261426 -0.08558678 0.022895867 -0.033038266 -0.07976891 -0.037962426 0.03873062 -0.011582502 -0.051882885 -0.07751309 0.06942882 0.083322726 0.03863739 0.02640578 -0.040580515 0.08710267 -0.0616883 0.011751519 0.03141205 -0.038592543 -0.0138016315 0.051110104 0.015698504 -0.03725735 -0.0058093914 0.0559767 -0.070086524 -0.021663854 -0.008388501 -0.011277803 0.07274195 0.016125951 -0.060661674 0.056347102 0.07894351 0.08025086 -0.050154775 0.03495048 0.06104917 -0.011524301 0.02295025 -0.005577117 -0.0034326455 0.026387688 0.0620472 0.040537994 -0.059323274
hsa-miR-6764-5p 0.029512366 0.036909826 -0.024270711 0.033867657 -0.03899178 -0.0684167 -0.05386909 0.07395418 -0.08195401 -0.06924006 0.050427824 0.04306194 -0.027527954 0.04948112 -0.06629303 0.0072974744 -0.08079628 0.01632338 -0.054430336 0.055143062 -0.07053548 -0.05896716 -0.06415927 0.03254884 0.04362517 -0.07760912 -0.077670984 0.058068313 0.07712741 0.02450065 0.051748026 0.059832044 -0.020868842 -0.051478278 -0.013247589 0.08044792 0.054248665 -0.05936567 0.025143972 0.024338037 0.033144683 -0.055701736 0.031293347 -0.052215826 0.06550812 -0.018911695 -0.021244053 0.012596201 0.07220116 -0.0515365 -0.027973978 0.07167658 0.08171277 0.014268683 -0.05029921 0.051067047 -0.040947128 0.062246665 0.082583494 -0.011603518 -0.068194784 0.08089904 0.029967632 -0.066077515
638 -0.059525985 0.085692436 -0.013608048 0.03803303 -0.07778519 -0.07978886 -0.079856195 0.029114014 -0.02804817 -0.044301763 0.009304975 0.021249022 -0.033695947 0.024284892 -0.02271936 -0.06934584 0.064524256 -0.012251785 -0.041456476 -0.015469971 -0.04013703 0.08150062 -0.035332188 0.057711713 0.037306204 -0.011949511 0.0743582 -0.024278823 -0.056437656 0.07401671 -0.018108606 0.07604751 -0.07618517 0.056003153 0.049553107 -0.020035306 0.07226959 0.038528442 -0.054779343 0.045989223 0.035694543 -0.01701392 -0.050402462 0.07184253 0.076179735 -0.0010887892 0.040486302 -0.040119022 -0.020823114 -0.01633766 0.011735367 0.043992452 0.07608553 0.07220401 -0.08307262 0.005975578 0.05066448 -0.017708026 -0.0008152663 0.06469406 -0.054616902 0.012581263 -0.038362436 -0.027908672
hsa-miR-1273h-5p -0.044330157 0.079251334 -0.026398946 -0.05778779 0.022702627 -0.052326433 -0.06470353 0.02707351 -0.012677081 0.06272783 0.074387625 0.078196675 0.034493573 0.057151005 -0.06839755 0.030097514 0.052464508 -0.011647524 -0.022469072 -0.07398248 0.022508206 0.08237083 -0.028392054 0.0070676557 -0.01661106 -0.04601583 0.067703344 -0.079113625 -0.033208318 0.058944475 -0.051575236 0.078792125 -0.025381807 0.05821593 0.03124673 -0.02882923 0.07680605 0.077755064 -0.037835628 0.07335286 0.025199827 -0.05106386 -0.06322169 0.05708965 0.037312727 0.056246545 0.02710825 -0.035300225 -0.0066067767 -0.07288586 -0.055875745 0.05368905 0.043794043 -0.05472756 -0.04583286 0.052587744 0.07202814 -0.06801236 0.052450296 0.06597757 -0.05639034 0.06979236 -0.042590525 -0.08034549
1871 0.033231974 -0.052498918 0.041990414 0.04127957 0.07450945 0.026505597 -0.03690796 -0.08311125 -0.06480214 0.048918862 -0.068917304 -0.04482942 0.05034635 -0.07432486 -0.06428506 -0.030778889 -0.059425734 0.0024232515 0.024016388 -0.08525687 -0.058963154 -0.0742439 -0.06363357 0.08372152 -0.0720378 0.076882765 0.016267039 0.028774558 -0.051264923 0.031161316 0.06547303 0.028637365 0.058973942 0.0051966673 -0.041018922 -0.0658458 0.031169152 0.03192932 -0.048651822 -0.038039967 -0.040817324 -0.0104324855 0.07230741 0.023492303 -0.047085263 0.05453993 0.045850173 -0.03687466 -0.035593294 -0.056749783 0.0054910537 -0.03577928 -0.08047027 0.07648656 -0.025005717 -0.0597944 -0.04549663 -0.041770987 0.021220572 0.05324179 0.06327629 0.028234456 0.049783908 0.053158462
hsa-miR-6812-5p 0.07231287 0.045801822 -0.005701069 0.05505027 -0.008039103 0.074248634 -0.061611947 -0.051203106 -0.0807326 0.061139744 -0.059581354 -0.077732675 -0.021781288 -0.052922957 -0.08528639 -0.033743925 -0.04456269 -0.0011358683 0.07159533 -0.034340955 0.063284494 0.06410097 -0.061118666 -0.06701869 -0.061839875 0.023107322 0.048481796 0.034824274 0.03340194 0.019954413 0.06287328 0.055140797 0.06864294 0.052434195 -0.006311544 0.04392442 0.054114506 0.018747024 -0.07185398 -0.06836012 0.058460273 0.014677206 0.060213123 0.068705566 -0.078423575 0.08293736 0.07833984 -0.03854551 -0.023842262 0.02864388 0.043989107 -0.005595399 -0.06252147 0.06606887 -0.0772794 -0.040359765 -0.038247235 -0.072388425 0.035611644 0.07972369 -0.051914547 0.06243517 0.05345702 -0.05651409
693 0.030550683 -0.028780269 -0.05324091 -0.049219295 -0.064659886 -0.052466907 -0.08116081 0.03555367 -0.06522389 0.043051697 0.041664183 -0.07260307 0.008494361 0.052068528 -0.025676534 -0.07851398 0.05458646 -0.07532387 -0.03269522 0.03257706 0.017259322 -0.06962653 0.050425783 -0.027786419 0.065746136 0.02755639 0.05119065 -0.017687336 0.036773145 0.06701791 0.025567234 -0.073647276 0.0017667301 0.043225706 0.026007915 -0.025394436 -0.052854575 -0.051344063 0.05940653 -0.06377761 0.0036692778 -0.03817988 0.034683865 0.017208453 0.044166658 0.03413208 -0.054787286 -0.03198229 -0.009166755 -0.06845459 0.025896857 0.015295423 -0.0407862 0.013553867 -0.021321408 0.016325753 0.021553256 -0.06961258 0.008517014 0.037190534 -0.014303995 0.07061019 -0.062508106 -0.038579334
hsa-miR-2861 0.074014954 -0.028991744 0.008724319 -0.022693714 -0.07419512 -0.038279798 -0.05838692 0.041193713 -0.05224627 0.07830773 -0.033914287 -0.07241966 -0.0026185275 0.04301825 0.060995642 -0.08209415 -0.02866766 -0.045042053 0.017864812 0.037092425 0.05832812 -0.0796191 0.048132166 -0.025749903 -0.014823615 0.045912072 0.06593236 -0.023911737 -0.011735683 -0.075838275 0.07688523 -0.059571434 0.00024364097 0.016928595 0.0027438318 -0.020153765 -0.034918375 -0.06972187 -0.049065582 -0.038875677 0.047965236 0.037385322 0.0062396517 0.07509366 0.062066864 0.06940624 -0.059332523 0.042059775 0.029787144 0.001951525 0.00818155 0.07361639 -0.022696704 -0.040843863 -0.07941176 -0.017291535 -0.065086015 0.02213003 0.054413963 0.05416976 -0.03572639 0.06414464 -0.015241668 -0.014598304
1040 0.048505407 0.002623261 0.0048081335 -0.030903287 0.011134599 -0.051344108 0.07766025 0.06280595 -0.0297348 -0.049647797 -0.009905791 -0.064107105 -0.042169414 0.016418856 0.018555488 -0.025530051 -0.043169327 -0.023408737 0.07049315 0.003683052 0.08685072 -0.060322486 0.023260284 0.042449467 0.03069194 -0.010223078 0.028698016 -0.071236275 -0.026373062 0.07425408 -0.033767004 0.054948483 -0.058739826 0.013695238 -0.08452447 -0.033802196 -0.033235468 -0.031061132 -0.04367532 -0.08408928 0.013949709 -0.07423892 0.06409045 -0.024314877 0.032191135 -0.013687382 -0.05037432 0.06815788 0.010796592 0.086313985 0.018848501 -0.046166822 -0.06932799 -0.036557205 -0.03702683 -0.04671839 0.02037755 0.057223443 0.031310346 0.033150587 -0.067766115 -0.077218205 0.05309016 0.043635894
hsa-miR-6797-5p 0.0074623493 0.049727432 0.0020586876 -0.05602228 -0.05422911 -0.03458736 -0.03135924 0.04126465 -0.075102925 0.010886774 -0.022133775 0.043639332 -0.023714568 -0.03585951 -0.03652657 -0.06658588 -0.04207128 -0.07580818 0.04805444 0.025690777 0.052208938 -0.051699817 0.016815554 -0.028253166 0.023926612 0.07051607 0.05867705 -0.018583335 0.025668554 -0.07424489 -0.059119955 0.07378757 0.0325028 0.030969717 -0.057411723 -0.0025208099 -0.07532013 -0.026974976 0.013984526 -0.08252949 -0.016747665 -0.06576313 0.015389067 -0.02111444 -0.072371006 -0.056494687 -0.06532089 -0.059205107 -0.038929477 0.07421297 0.058618993 -0.014902747 -0.049671188 -0.044390835 0.065539695 -0.04396695 0.022029271 0.017293438 -0.061109908 0.06836739 -0.08406673 -0.05897568 -0.066645436 0.048225842
1372 0.053764954 0.035354167 0.012864702 -0.05483164 0.0058757653 -0.055360526 -0.065827414 0.014561683 -0.029191738 -0.04224858 0.06528698 0.02888712 -0.0013185495 -0.03609157 -0.039885268 -0.042581946 0.058118224 0.00875102 0.07720971 0.025662193 -0.06556414 0.07022856 0.030105822 0.028165631 0.04224114 -0.042295963 -0.024763357 0.025074512 0.065866515 0.034444094 0.01428595 -0.038882844 0.08281664 0.06397815 0.034738474 0.003213685 0.022759914 -0.019369205 -0.018142797 0.07676669 0.034375444 -0.013625309 0.006415446 -0.079520844 0.012123804 0.024960417 -0.08182588 -0.012968671 0.069816284 0.059132934 -0.054984078 0.08336125 0.0049311733 -0.05860601 -0.02225323 -0.023443792 -0.05283486 0.0837508 0.06501886 -0.080832735 -0.037393544 0.015879363 -0.03124375 -0.008556075
hsa-miR-3929 0.06845073 0.06177862 -0.01593099 -0.052354358 -0.012177797 -0.015459103 0.047635533 0.027596721 -0.07107393 -0.07307691 0.032126144 0.044714946 -0.058231346 0.0008582021 -0.02058928 -0.062706746 -0.0072169956 -0.07818476 0.050595954 -0.02190585 0.0071810493 0.049251255 0.00097387563 0.048479855 0.036971387 -0.025442138 0.08158307 0.05391703 -0.07248216 0.075980544 -0.04176173 0.047079083 -0.030655712 0.08114685 0.05601584 -0.032177575 0.07225813 0.045134444 -0.017173275 0.08166175 0.043194655 -0.049774263 -0.055026755 0.04089024 0.06874738 0.041246925 -0.020120228 0.04893178 0.05335078 -0.047845796 -0.06619043 0.073752 0.03404084 -0.004983464 0.027044915 0.050958645 -0.041039176 0.054712184 0.0759746 0.035195626 -0.053683694 0.06934255 -0.045848206 -0.027929313
652 0.034626156 -0.08199731 0.021216407 0.016293593 0.08554756 -0.037539773 -0.054741796 -0.0030439775 0.051338002 0.04249786 -0.024911705 0.0030874452 -0.058329657 0.05731711 -0.05526461 -0.018596726 -0.041521553 0.04861059 -0.013556506 -0.06919216 0.069914006 0.07970189 0.07958446 -0.016378481 -0.007254808 -0.027398134 -0.06507256 0.07432126 0.04712422 0.026188575 -0.050162725 -0.038935587 -0.05602004 -0.015201941 -0.068903714 -0.063784964 -0.04520282 -0.052860104 -0.036061607 0.018076755 0.06203448 0.008839617 0.04048808 0.07862466 -0.014865385 0.015277307 -0.016458813 0.007150298 -0.04274389 0.0071926843 -0.051283248 0.047807325 0.024562493 0.03515966 0.037434556 -0.081284106 -0.075231574 0.049432397 0.042933464 -0.054743677 0.07745804 0.04124879 -0.060454775 0.035326056
hsa-miR-7974 0.063769266 -0.04118561 -0.08165921 0.06159475 0.06894422 -0.07146286 -0.0053671757 0.032975897 0.07705946 -0.04037233 0.018603344 0.024241818 -0.06968613 0.0252464 -7.678289e-05 0.017357621 0.014973369 0.04117756 -0.0072615007 -0.04556238 0.08000096 0.06966107 0.051322747 -0.04162766 0.048615277 -0.022413895 -0.049542516 0.031617932 0.030602677 0.085104354 -0.03957604 -0.044328094 -0.078152314 0.02622168 -0.015703198 -0.03431637 -0.06586687 -0.016744925 0.04824795 0.052797563 -0.06652071 0.009224331 -0.057913095 0.05293899 -0.03361495 0.01980185 -0.0395672 0.07602743 -0.058950514 -0.014943472 -0.060292237 -0.0032844022 0.036609113 -0.02001819 0.0034670504 -0.08308685 0.043579143 0.025519015 0.06232887 -0.024415707 0.027306389 0.07969083 -0.08148277 -0.012372514
1588 -0.058562934 0.06453172 0.025765918 -0.017016241 -0.08504307 0.042218618 -0.029448012 0.025620673 -0.049267076 0.05761748 0.03971961 0.039749257 0.045256168 -0.0056840517 0.03968952 -0.055773508 0.05890204 0.07253294 -0.020243846 0.030757891 0.06455881 0.052124783 0.005890186 -0.04375402 0.07544787 -0.049036 -0.07890822 0.02136005 0.03177675 0.074277185 0.064366415 0.06358515 0.075849034 0.02116201 0.06938501 -0.042164303 0.030327227 -0.0790389 0.028302532 -0.054471806 -0.08469217 -0.07054532 -0.059776567 -0.0741111 0.035110597 -0.06901719 -0.03470161 0.06905951 0.01555252 0.040363576 0.07435339 0.06767992 0.018885486 0.022595748 0.036806416 -0.056130953 0.032896653 0.02166345 0.04175259 -0.030356035 0.06740056 -0.052534148 -0.039791048 0.035456385
hsa-miR-378g -0.027095411 0.03903397 -0.029724516 0.030262664 0.053802107 -0.0677056 -0.03576365 0.08245019 0.04961465 0.02460792 -0.013814597 0.026961224 -0.050391704 0.023283344 -0.037649076 -0.00011946168 0.070969716 -0.012036272 -0.05991794 0.06365238 0.07591182 0.060737066 0.049760856 -0.012525713 -0.01783902 0.019945828 -0.056733936 0.044604443 -0.009866002 0.082860075 0.0606618 0.07644786 0.08219172 0.07560222 -0.009972846 -0.031269446 0.015849786 0.009395805 0.073651105 0.03879926 -0.03159749 0.02347135 0.027995508 -0.056847624 0.011556515 0.04797278 -0.07315479 0.0621871 -0.054727793 -0.07922271 0.081605665 0.04381665 0.05282321 0.05613109 0.039948046 -0.024222989 0.0013468028 -0.010470757 0.04832875 -0.077096194 0.035074994 0.032117978 -0.068370834 0.070009515
121 0.024288729 0.03938226 0.010812515 0.0659383 -0.00020758621 -0.058212638 0.04226987 0.017671518 -0.085858546 0.01559308 0.020310756 -0.05594091 -0.0067967353 -0.037451953 -0.070531525 -0.031194326 -0.07982756 0.027851375 -0.0518896 0.023157101 -0.045392454 0.0379985 -0.022991516 -0.036686648 -0.06949982 -0.059780557 -0.08281769 0.03922398 -0.080997795 0.07175144 -0.06924925 -0.046107426 -0.08299237 -0.044523578 -0.055570427 -0.080887005 -0.076593466 -0.024574302 0.013192316 -0.070482306 0.028080134 -0.04599733 -0.029719817 -0.07937952 0.038744837 -0.08032663 -0.06585468 -0.06683484 -0.0020922367 0.025734816 -0.014585338 0.076581046 0.0063460376 0.0397013 -0.025469292 0.021689132 -0.06415162 -0.02991002 -0.012155196 -0.0073861997 -0.055105135 0.078096785 -0.063636534 -0.05840165
45 0.07631959 0.007673567 -0.06322465 0.0011829141 0.010456524 -0.07744576 -0.02827568 0.043405592 -0.027410459 -0.08242482 0.052013364 -0.024670497 -0.012708208 -0.02114433 0.074539684 -0.054053016 -0.023383934 0.049291585 -0.0680657 0.015228679 0.028527353 0.0015084436 -0.011396506 0.08190578 -0.052729845 -0.042435527 0.05547243 -0.042355344 0.03319926 0.020330727 0.020598296 -0.050864223 -0.06388959 0.031607468 -0.07392811 -0.05155231 -0.029196609 -0.030179335 0.010686608 0.072752096 -0.0437764 -0.042455878 0.036805127 0.031343438 0.015563813 0.06990898 0.03344775 -0.048890177 0.03601712 -0.039453465 0.072650835 -0.07437286 0.047228575 0.026705215 0.01808325 0.05123161 -0.037403718 0.07988169 -0.0447624 -0.082042344 -0.04110741 -0.022709826 0.021012545 -0.012437671
hsa-miR-6839-3p 0.043049313 -0.027237128 -0.051154856 -0.021266844 -0.014868032 -0.06895795 -0.07302377 0.07480926 -0.059658136 -0.052030943 0.04344921 0.040897068 0.032846726 -0.07164209 0.085077986 -0.06031204 -0.04779315 0.01663826 -0.043631993 -0.036862466 0.04310311 0.022514364 -0.027409282 0.02356312 -0.02403989 -0.07736329 0.027342433 -0.025198177 0.029691935 0.031905696 -0.02652847 -0.085677266 0.04567456 0.030441586 -0.025186121 -0.015879024 -0.02194082 0.013384126 -0.047978386 0.076225504 -0.045447107 -0.06879361 0.030443437 0.037063293 0.037258197 0.085644454 0.04322936 0.047900666 0.027658038 -0.028676536 0.053222008 -0.01410644 -0.02512717 0.0407613 0.03257115 0.040092684 -0.023384446 0.013831633 -0.038427733 -0.06581414 -0.0683652 -0.070377365 -0.01437224 -0.045351885
2572 0.035104502 0.052313272 -0.056486443 0.08088625 0.07302976 -0.07860674 0.042751506 0.036012728 -0.020512965 0.06618519 -0.066689156 0.0433533 0.046827797 0.032510422 0.06534359 -0.02649271 0.069931716 0.040303312 0.061197825 0.0040885527 0.056244746 0.02585977 0.03930186 0.07093706 -0.018749626 0.009012809 0.041530736 0.008986087 0.07398168 0.07378516 -0.028928898 -0.0535156 0.014150609 0.03137181 -0.028480971 -0.07299981 0.060918264 -0.04788388 -0.05696249 -0.08703704 0.02824713 -0.0053853644 0.012198338 -0.081043966 -0.06457139 -0.075325556 -0.044582695 0.0012728418 0.04170485 -0.032565963 -0.0021272195 0.03661384 -0.05752916 0.0074984487 0.042395536 -0.045716014 -0.0370004 -0.07285539 -0.05644133 -0.069827646 -0.027096605 0.035611305 -0.036978144 -0.07819883
hsa-miR-3677-5p 0.037688702 0.03471411 -0.015586201 0.054343343 0.021911304 -0.07942744 -0.01866372 0.081223205 -0.026369415 0.054466084 -0.043388903 0.008268102 0.071957335 0.06504296 0.05949134 0.0043820045 0.054490976 0.01636237 0.035784714 0.0153831355 -0.03292798 0.023690656 0.03258732 0.030070638 -0.04729802 0.046119988 0.058849238 0.010845929 0.069320016 0.057387266 0.023036769 -0.077077344 0.044774823 0.07934731 -0.03984605 -0.08258916 0.008521928 -0.06429003 -0.061181616 -0.08223583 0.012329942 -0.013196496 0.022686481 0.021915225 0.0143720675 -0.0325029 -0.01713182 0.04867491 0.06266704 -0.049747214 0.0036638267 -0.022657478 -0.08479198 -0.070984125 -0.040274158 -0.042347573 -0.038787387 -0.021881914 0.018893845 -0.043284126 -0.008787353 0.0067600026 -0.01699267 -0.06493883
1004 0.069203384 -0.045156274 0.03156051 0.04717636 0.078641444 0.03676517 -0.07911399 0.07690264 -0.0422408 0.0694882 -0.06650658 0.050003145 0.07215955 -0.04592646 0.07393167 -0.04137326 0.07512952 0.005249486 -0.06936591 0.07207531 0.07361417 -0.070960276 -0.051490955 0.05673679 0.048508983 -0.012377346 -0.038364615 -0.064275585 0.049553774 -0.041448757 -0.014494273 -0.024740046 0.08360996 0.05766052 -0.023403278 0.049765773 -0.08048646 -0.078188755 -0.038251244 -0.071836464 0.054257028 -0.045201294 -0.044615142 0.005350814 0.03249541 0.017008651 0.08085785 0.0763406 -0.052660972 0.035700466 0.017994415 -0.050905764 0.039464638 -0.012729583 -0.013585428 -0.02781289 0.06919093 -0.06271553 -0.015458923 -0.014904397 -0.032824248 -0.0058758925 0.056982175 -0.07358822
hsa-miR-4690-3p 0.084556624 0.056413393 -0.014619129 0.014901953 0.016321227 0.04698264 -0.033831544 0.08094885 -0.009250985 0.083923474 0.05304172 -0.06564514 -0.08693875 -0.05865536 0.07973757 -0.025129484 0.053266123 0.015192912 0.014121917 0.02651284 0.012259948 0.01329758 0.056139827 -0.02078167 -0.07484244 0.07753372 -0.033081993 -0.06863251 0.022690278 0.044223513 0.08443298 0.036599904 0.06128503 0.055191092 0.03771589 0.05663202 -0.051421024 -0.006846139 -0.042307712 -0.05110588 -0.021559356 0.010666007 -0.031122433 0.038763802 0.08441599 -0.082138225 -0.07936378 0.08026896 -0.08121267 0.049390145 -0.03308287 -0.036112104 -0.019730642 0.005760846 0.04380118 -0.051486973 0.024622537 -0.028366473 -0.07378752 0.04198489 -0.003879941 -0.05832689 -0.01812554 -0.058472365
74 0.048952904 0.008290496 -0.014024324 -0.069194116 -0.07043609 0.017966438 0.077259354 0.0382864 -0.009664356 -0.04931072 0.026222423 0.059982467 -0.029676903 0.00450887 -0.016679332 -0.034998786 0.0830669 -0.037843503 -0.07249626 -0.078623965 -0.07235292 -0.024661407 -0.009568925 0.058886245 -0.04231627 0.03441309 0.071060516 0.05419056 -0.06688676 0.05598918 0.08174552 0.041455764 -0.052337512 -0.07304317 -0.047504872 -0.056811087 -0.0399248 -0.064335495 0.046166375 0.07362349 0.04933746 -0.07957109 -0.03266548 -0.045648545 0.042574175 0.056516424 0.03567672 0.018740539 -0.058963265 -0.0669611 -0.046223402 0.055225596 -0.039536122 -0.033364885 0.007534316 0.022572868 0.08358427 0.047610205 0.059370708 -0.055716842 -0.0589297 0.007822558 0.030908054 -0.059232377
hsa-miR-372-3p 0.061831743 0.069993176 -0.042115737 -0.062476367 -0.083438 0.06553841 -0.053007033 0.051044844 -0.03524856 -0.047173172 0.01737461 0.040710907 -0.021059174 -0.060288504 -0.082524724 0.07422663 0.05425278 0.060300507 -0.03819664 -0.036531247 -0.04413298 -0.055341505 -0.04096641 0.03303438 -0.0670268 0.012751851 0.04276499 0.059158165 -0.054481562 0.045242958 0.08469688 0.018903904 0.009553228 0.039439466 -0.051944137 -0.05093948 -0.016323326 -0.074013814 0.062412843 0.020179266 -0.053835 0.0037047202 0.019391358 -0.046306536 -0.03232973 0.0130146 0.0111358045 -0.019365493 0.060965 -0.056418143 -0.07111654 -0.016453993 0.039087895 -0.014815525 -0.07899918 -0.07557992 0.03283344 0.03638365 -0.073835336 -0.030544646 -0.021413894 -0.03739646 0.054731797 -0.025800966
523 -0.049859766 -0.04154434 0.01034254 -0.066244096 -0.07413876 -0.0796247 0.07141917 0.022067815 -0.029721167 0.0600178 0.038990427 -0.02016205 -0.011553967 -0.0689115 0.030036919 -0.06342208 -0.06683393 0.01573169 -0.0037307744 0.013156848 -0.023014344 -0.06277559 0.008625569 -0.062989086 0.012344765 0.046903633 -0.011478426 -0.01340138 -0.022694949 0.082945935 -0.07325533 -0.035431463 -0.063818686 0.052629504 -0.024226863 0.08251057 -0.037012264 -0.023957279 0.084137306 -0.053837076 0.016379181 -0.0852736 0.018532928 -0.009833716 0.08110547 -0.07235991 -0.024962012 0.0186684 0.033460777 -0.047403272 0.060063824 0.052400596 -0.05298984 -0.021697456 -0.08419743 -0.016738566 -0.041706786 -0.014877894 -0.02301485 0.07071288 -0.06714881 -0.012001775 -0.07153018 3.087893e-05
hsa-miR-6852-5p -0.08256471 -0.05161621 0.06249909 0.047835935 -0.053823665 -0.060230844 0.043886326 0.078443386 -0.03105176 -0.045187067 0.039672464 -0.07645141 -0.067926124 -0.07235261 0.0010205852 -0.075585276 -0.07739528 0.056320157 -0.07918034 0.052080996 -0.040662106 0.009545613 0.028030194 0.08441249 0.051035564 -0.07255346 -0.053501956 0.030588081 -0.006920242 0.052644387 -0.0412632 -0.070260495 -0.056095947 -0.08116248 -0.051842693 0.07364172 0.028571513 -0.066588 0.048168562 -0.0767288 0.047847267 -0.036529478 -0.036704578 -0.05697492 0.033359446 -0.02625639 -0.083161876 -0.026540045 0.021132495 0.024403304 -0.0639647 0.057676986 -0.01596215 -0.052034818 -0.08189226 0.035518546 -0.06792512 -0.05097716 -0.07486719 -0.027372176 -0.05225209 -0.07224319 -0.009956354 0.052872077
60 -0.06441398 0.051886104 0.072066255 0.0801126 0.051897503 0.033969074 -0.047626406 -0.0076003238 0.035261672 0.041114185 -0.044177067 -0.022192454 -0.04720904 -0.079780236 0.037660938 -0.01589631 -0.036064807 0.05912715 0.041521363 -0.015966397 -0.056985453 -0.004721011 -0.044718422 0.020791411 0.04351988 -0.07948485 -0.01132701 0.024063393 0.03724266 0.007651758 -0.080758065 -0.07636897 -0.048050933 -0.054274976 0.055031754 0.0074230703 0.0494056 0.031383846 0.007459332 -0.07914586 0.013038063 -0.08011531 0.030614078 -0.011149216 0.069717176 -0.08257714 -0.057493996 0.05522261 -0.06687046 0.017508462 -0.00894852 0.016046777 -0.041239288 0.028108578 -0.017513897 -0.038103387 0.021478163 0.083947405 -0.08246727 0.047171757 -0.012552741 0.0731328 -0.07051508 0.014303811
hsa-miR-1286 -0.054264396 -0.031747654 -0.05061792 0.060450356 0.056186877 0.010493093 -0.049008437 -0.014766942 0.01407584 0.07741932 -0.07399342 -0.05295804 -0.022792928 -0.049406942 0.029673802 -0.058009475 -0.07202972 0.06304397 -0.072784156 -0.041099187 0.03632289 0.013422957 -0.07485761 0.071791455 0.010815515 0.044734444 -0.059871234 -0.0069684675 0.056321897 0.072404906 -0.045314383 -0.041625522 -0.055695336 -0.05440245 0.042933453 -0.0054728715 0.075126275 0.03912357 -0.018392775 -0.040432025 -0.0068850354 -0.08196841 0.037396062 -0.043991614 -0.012197853 -0.022420626 -0.021734076 0.025060365 0.020516533 0.054382253 -0.06778076 0.067896575 -0.047989964 0.026550516 0.042992026 -0.025178235 -0.012757062 -0.021460373 -0.035038896 0.040739544 0.05192051 0.050672997 -0.08311696 -0.026105458
8 0.037479512 -0.047407318 -0.054108344 -0.016965691 -0.021611435 -0.018157113 -0.0744191 0.053770058 -0.034408934 0.03781842 0.03687695 -0.024838468 0.029983409 -0.0561613 0.079692766 0.00037427852 -0.040356852 0.06393847 -0.08445722 -0.061441645 0.07623665 0.06865533 -0.026530217 0.046699982 0.053581305 -0.06863814 0.050456777 -0.018903026 0.060711417 0.06653254 0.025830979 -0.061698828 0.010945514 0.06375056 -0.05185977 -0.06665926 -0.047888264 -0.043749068 -0.04146298 -0.027829967 -0.04757165 0.013644364 0.08449721 0.07333456 0.08145966 0.04683771 0.03126471 0.027743528 0.059795097 0.018652916 0.08259876 0.0025281282 -0.07081347 0.027948152 0.07389052 0.0729093 0.056048702 -0.023143202 -0.038015988 -0.056309912 -0.07633326 -0.046563152 -0.004576958 -0.073139355
hsa-miR-133a-3p 0.01650849 -0.03101813 -0.008891145 0.011091473 -0.07626498 -0.04799535 -0.046181977 0.021096174 -0.055858903 0.08102042 0.060958993 -0.041838367 -0.009613924 -0.02081974 0.047540452 -0.022438988 -0.013543433 0.08597329 -0.043500207 -0.0530257 0.026574194 0.06381802 -0.056551058 -0.025946766 -4.5074616e-05 -0.051892117 0.021086209 -0.013994749 0.07242243 0.08138125 0.026198149 -0.0616393 0.051286153 -0.0012304746 -0.01134275 -0.022054408 -0.06913976 -0.026888099 -0.0599702 -0.048419155 -0.074377336 -0.010235133 0.0153214885 0.082766615 0.06256904 0.053638536 0.034173075 0.025560912 0.01943676 0.039777696 0.037138257 0.076528415 -0.013440806 0.07385344 0.07101124 0.026983034 0.031471193 -0.008508359 -0.028583039 -0.04278154 -0.054757547 -0.0601082 -0.043282397 -0.015931774
962 0.059740327 -0.02704661 0.025284182 0.07003976 0.0705086 -0.02833746 -0.07616078 0.05679521 0.0097708935 0.036412477 0.03905138 -0.047816664 0.047372654 0.06454078 0.07438 -0.032803103 0.0022819522 0.057337496 0.02042574 0.012458711 -0.03840563 -0.03699643 -0.008397181 0.016613588 0.054159574 -0.0788719 0.05432238 0.06482144 0.019264452 -0.025563285 0.027866755 0.044592097 -0.08239474 -0.0026311968 0.06435753 -0.07110835 -0.060152456 -0.019462034 -0.014380737 -0.07193358 0.070137784 0.027243141 0.08289098 -0.03298185 0.042706482 -0.05373297 -0.0155080985 -0.01697687 -0.0747862 -0.016875705 -0.03910096 0.07902619 -0.0041471426 -0.05900771 0.085262 0.020257425 0.04528509 -0.049861655 0.08010712 0.020498434 -0.07594581 -0.055636935 -0.045665808 -0.07217742
hsa-miR-6774-5p 0.05533141 -0.04849844 -0.022578444 0.084265776 -0.037376117 -0.010052094 0.030773163 0.0634345 0.046332557 -0.0139200315 0.08004117 -0.03357811 -0.084289216 0.06726484 0.06700213 -0.02100385 0.06799107 0.05934658 0.05042336 0.026793592 0.08132133 0.013016519 -0.054263994 0.084134795 9.339722e-05 -0.06515116 -0.025039893 -0.02599053 -0.017045453 0.0010796706 0.034060027 0.04101208 -0.03571919 0.06384725 0.05014235 -0.059061572 0.034961134 -0.06041093 -0.02857882 -0.068858206 0.07857831 0.0479451 0.0686467 -0.0013994046 -0.01134655 -0.07466347 0.032772638 -0.05999201 -0.078060925 -0.05643306 0.02110841 0.041947767 0.036387302 0.005411907 0.07563482 0.024821673 0.03497186 0.04151529 0.07075478 -0.033089153 -0.029731322 -0.062285967 -0.07425768 -0.06501651
2771 0.075191915 0.036142804 0.054941256 0.08010681 -0.062889665 -0.045842785 -0.035710268 0.04432927 0.065802604 -0.077023536 0.057805225 0.0771111 0.040481657 -0.06824238 0.026328277 0.05014656 0.07888003 -0.045281768 -0.046294257 -0.03576996 0.01943716 -0.013143522 0.03604757 -0.08646385 0.04580763 -0.015155494 -0.033181205 -0.032204863 -0.02152984 0.08397985 0.01678493 0.03259904 -0.031401433 0.052232888 -0.0444902 -0.030760683 -0.04848852 0.020380128 -0.05942918 0.055437822 0.051329654 0.08026367 0.017118244 -0.047285642 0.0807977 -0.032068305 0.02720495 0.02718889 0.024258949 -0.05499427 0.042218428 0.052139517 -0.039222132 -0.046633296 -0.042797573 0.06422653 0.051457763 -0.08194411 -0.029044826 -0.056767408 -0.034734014 0.014280677 0.015214315 -0.05166405
hsa-miR-877-3p 0.05789338 0.06446068 0.01500283 0.05930102 -0.056132868 -0.06193657 -0.032972712 0.07800687 0.03486918 -0.07877319 0.03683883 0.0323997 0.012598665 -0.032868583 0.036749594 0.03374281 0.025074257 -0.067097835 -0.060734376 -0.051798508 0.06675979 -0.06171783 0.04362323 -0.06305449 0.047980692 -0.06205184 -0.037533816 -0.049594905 -0.04204335 0.07206143 -0.02347998 0.034341514 -0.06703283 0.035637774 -0.049407333 -0.07504241 -0.030682094 0.029257596 -0.008747175 0.035996705 0.034505058 0.07869536 0.051476333 -0.053151954 0.043122713 -0.078549474 0.04977902 0.05340165 0.04437043 -0.024816355 0.074601755 0.06967399 -0.010937143 -0.044909034 -0.020495834 0.05100327 0.06741693 -0.04765694 -0.000332654 -0.06567266 -0.07249551 0.06769429 0.07307184 -0.07678854
370 -0.06948976 0.06774046 -0.015118017 0.056743223 0.072522275 0.0005650569 -0.055575382 0.05232217 0.029234905 0.0148854265 0.025331343 -0.072098486 -0.07578077 -0.038097806 0.08189948 -0.029286351 -0.018227063 0.02246245 -0.043350413 0.035148744 0.0243808 0.056516577 -0.07717397 0.03306322 -0.017831353 0.078669325 -0.08304767 0.04908106 0.03948191 0.06187333 -0.053720415 -0.019549146 -0.063280456 -0.07782488 0.078616984 0.043168828 0.011894875 -0.07354201 -0.07817446 -0.05628158 -0.0026627732 -0.06839169 -0.016954368 -0.07893571 0.077463225 -0.0024665748 -0.073227674 -0.03243772 -0.025592342 0.08647272 -0.02753283 0.068929784 -0.07654502 0.03697664 -0.029447248 -0.037598014 -0.012886153 0.02341445 -0.031163024 0.013929989 0.027495837 0.054155733 -0.013892295 -0.025112554
hsa-miR-29c-3p -0.06200259 0.07194684 0.017881278 0.028199187 0.07290453 0.056615405 -0.033289418 0.046554454 0.022882152 0.029418709 -0.06368338 0.052358363 -0.051439825 -0.04280916 0.05545715 0.032116495 -0.07886638 0.029676415 0.06193117 0.083144926 0.057470467 0.0069245333 0.0030185701 0.04509323 -0.02703974 0.044586807 -0.035982437 0.04162732 0.053740975 0.0515588 -0.06778259 -0.039209526 -0.07824258 -0.03503473 0.018643107 -0.011810104 -0.06596986 0.024335457 -0.019708078 -0.055004526 -0.027714603 -0.046086084 0.079763494 -0.054369118 0.014245663 -0.01848397 -0.07368648 -0.061813567 0.06561909 0.052599072 -0.056933563 0.07353931 -0.059932318 0.014803639 0.034837984 -0.016998619 -0.03132142 -0.044801205 -0.014806083 0.0509954 0.011898318 0.047639653 0.041017782 -0.031510178
396 0.041765776 -0.07689497 0.021840494 -0.06692043 -0.050110757 -0.043859035 -0.029923864 0.027028918 -0.03376388 0.03512704 -0.051444083 -0.027680295 -0.016197246 0.0072601717 0.046460826 -0.0064446623 -0.024659699 -0.06156669 0.02308985 0.07989294 -0.065908805 -0.012179666 0.05484403 -0.034730867 -0.008707506 0.027953181 0.012190547 0.04374235 -0.03415197 -0.06647226 0.028183136 -0.06799072 0.04393763 0.02551401 -0.026521955 -0.052886743 -0.046835713 -0.030925196 -0.08205657 0.012534607 0.03519374 0.05838325 0.027622065 0.031058196 -0.00018539838 0.020684868 -0.05487014 0.041127034 0.0635383 0.009878039 0.07704005 -0.08161619 0.054659486 -0.027180523 -0.03570286 -0.046170987 -0.07164701 0.048896536 0.06027077 0.031167049 -0.043413788 0.01091721 -0.0821356 0.018611794
hsa-miR-939-3p 0.030501898 -0.053384155 -0.04470335 -0.030231593 -0.069794394 -0.076008685 -0.052491896 -0.04997944 -0.054711353 0.070942596 -0.025814 -0.048078917 -0.051659603 -0.029810475 0.071941674 -0.0065185074 0.044046365 -0.0702074 0.04978155 0.051054858 -0.025858661 -0.03989056 0.025205988 -0.02719364 -0.07602328 0.045283027 0.034578193 0.050858516 -0.06639582 0.011531029 -0.042689517 -0.026624588 0.0103022065 0.018976582 -0.008424757 0.012313107 -0.070731185 -0.022825407 -0.07853265 -0.031526413 -0.03175626 0.06781931 0.02617126 0.048789788 -0.07398637 -0.053680845 -0.08528912 0.0541991 0.048537053 -0.009093691 0.0068379296 -0.046120763 0.04177374 0.040323876 -0.063476175 0.0030159564 0.03536866 0.05976174 0.021362003 -0.065498814 -0.048743334 0.04223189 -0.07577012 -0.0050005405
598 0.059285887 0.016968392 0.006606892 0.085798405 -0.056792848 -0.009175186 -0.019952077 -0.061706714 -0.07790436 0.035321485 0.026770297 0.036187083 -0.07525551 -0.04214467 -0.026518567 -0.016604874 -0.03602856 0.052523915 -0.05748554 -0.082795 -0.015451201 0.083656855 0.07573318 -0.07786515 -0.08232076 0.04410717 0.022688555 -0.008510762 -0.0813641 0.034811594 -0.03513784 0.019698454 -0.08633709 0.05299531 -0.0082305735 0.045426786 -0.05594746 0.014936406 0.08147822 -0.042206418 -0.035787936 -0.064993836 0.025200952 0.00066286325 0.06208159 -0.055976592 -0.024705231 0.03339573 -0.08159197 -0.06696945 -0.04116 0.056905292 0.07216254 -0.019778876 -0.016410746 0.06547385 0.027736861 -0.034120668 0.0798585 0.038975924 0.05480778 -0.030728398 -0.030308502 -0.047437243
hsa-miR-328-5p -0.055716425 0.055242684 -0.05110827 0.049504396 -0.042406373 -0.02900086 -0.030346185 0.027302213 -0.06866578 0.03484765 0.02477564 -0.05678183 -0.07408133 -0.07924463 -0.044227943 0.05366909 -0.048833698 0.031164706 0.02457823 -0.065751284 -0.05763264 0.06368151 0.04678134 -0.04539892 0.0030605998 0.017945232 -0.020933937 0.009994185 -0.05941461 0.06779845 -0.046306796 0.07728609 -0.07012206 0.066620074 -0.050324164 -0.061147638 0.068416126 0.056027792 -0.009263136 -0.057426933 0.033544153 -0.05991102 0.029634764 -0.033873383 0.03631953 -0.07691933 -0.051190943 0.030605964 0.03603168 -0.057189316 -0.070850186 -0.03471853 -0.043569468 0.034498822 -0.017413232 0.050164454 -0.06534456 -0.06034369 0.046939917 0.03529281 0.040906012 -0.06305442 -0.05511229 -0.028744996
3534 -0.08113424 -0.027918583 -0.036517754 0.020244544 -0.06007589 -0.050602563 0.06416252 0.020378802 -0.06854328 -0.0029706773 0.008269287 0.00977775 -0.013811108 0.014250335 -0.008617237 0.05612018 0.067530565 0.040102035 0.016272686 -0.019615829 0.05778579 0.07648147 -0.054766476 -0.07253985 0.058789298 0.042546637 0.01601623 -0.079170026 -0.044184323 -0.0060331854 -0.03123951 0.05770427 0.07097212 -0.034838255 0.039266117 -0.061572324 0.012014075 0.010675783 0.019575186 -0.08289989 0.035257444 0.037797555 -0.07559011 -0.04150763 -0.0813384 0.0073623746 -0.02397279 -0.068011016 -0.08417464 0.017343247 0.0072715767 -0.01458896 -0.068126604 0.06414144 -0.035914686 -0.01973381 0.060229555 0.08127772 0.033287574 -0.05738304 0.024957128 0.0072218813 -0.07939607 -0.025839034
hsa-miR-6894-5p -0.05615645 0.00662324 -0.08113253 -0.009968725 -0.0604947 -0.057074457 0.06599716 0.04370794 -0.058006473 -0.024309883 0.044364847 0.016251266 -0.055779934 -0.02224606 0.018221404 0.014560923 0.08110329 -0.0076538706 -0.04184443 -0.08113173 0.050155345 0.0026216954 -0.052837986 -0.07989652 0.048941854 -0.010127291 -0.020523667 -0.043712035 -0.068562284 -0.023271438 -0.048399627 0.051518124 0.04317208 -0.07968355 0.014793606 -0.054808002 0.032345533 -0.026511453 0.058674302 -0.036805704 0.06671077 0.07239669 -0.08160399 -0.019738642 -0.061063744 -0.038063396 -0.03984632 -0.04575242 -0.08201005 0.04174233 -0.04440135 -0.055919483 -0.07314672 0.051541768 -0.057754464 -0.040483642 -0.019219188 0.06301029 0.061330523 -0.07810356 0.08090696 -0.019063182 -0.024504267 -0.03164861
84 0.00054783 0.07886693 -0.002805187 0.0056225825 0.0009668092 0.021053117 -0.025318556 0.06905394 -0.085222155 0.074060835 0.065859295 -0.04892124 0.056916118 -0.019578937 -0.0120303705 -0.02898633 -0.03102529 0.038261924 0.08018839 0.042816292 0.02177918 -0.051756077 -0.063721426 -0.035573684 0.075109325 -0.06528016 0.06391317 0.040113207 0.05407054 -0.043857545 0.07715165 -0.04304473 0.036922954 0.081157245 -0.061704203 -0.08259714 0.037074015 0.02329986 0.028283183 -0.043525595 -0.0033434196 -0.065480255 0.074951924 0.0314085 -0.024103392 0.06223768 0.031761933 -0.010265526 -0.016776707 0.031336885 0.07188771 0.039760944 0.024215281 0.07215549 0.008143927 0.06810986 -0.020945966 -0.06761867 0.008176899 -0.077712566 -0.06695401 0.08110715 0.025715958 -0.03555512
hsa-miR-3202 -0.018135672 0.050503623 -0.044048626 -0.03428328 -0.009423138 0.015252667 -0.04553701 -0.015501556 -0.0817306 0.02646657 0.08407439 0.059963726 -0.039116457 0.033811916 -0.046964005 0.0836879 -0.068589926 0.043393742 0.034924272 0.040380362 0.010973483 -0.041032724 -0.07112773 -0.025734892 0.065795146 -0.04157905 0.045329716 -0.021406168 0.037671555 -0.031587727 0.041328736 -0.07207042 0.067466535 0.02667645 0.040731624 -0.026873967 0.053569835 -0.005730759 0.064303026 -0.043396767 0.05839835 -0.061305076 0.05371988 -0.030464897 -0.013201447 0.02939726 -0.07281479 0.009981472 -0.023828017 0.04525202 0.06410716 -0.053059082 0.00032671075 0.027308889 -0.06415099 0.032338366 0.038918145 -0.07244519 -0.034569178 -0.061570752 -0.052857254 -0.038452946 -0.054459628 -0.070031226
2409 0.07328327 0.035725266 -0.039288975 0.08632052 -0.048170537 -0.039120305 0.08079874 0.048698954 -0.020260748 0.004352069 0.023634508 -0.029838499 0.0011100988 -0.030052476 -0.06766842 0.048820347 0.07006772 -0.05767236 0.026734844 0.06875031 0.031243265 -0.015689006 0.03589128 -0.021242768 -0.04141572 -0.061928183 0.054157563 -0.03371989 -0.020422298 -0.014274847 -0.07118857 -0.037540086 0.015646888 0.011499658 -0.08301987 -0.030556444 0.06944867 -0.08397093 0.08146758 -0.03822852 -0.0075508705 0.024686117 0.049146164 -0.013572046 0.07766886 -0.033525404 -0.06007807 0.0055432804 -0.051231984 0.037265897 0.056714736 0.07783356 -0.05434297 -0.023797853 -0.02026651 -0.022437185 0.035593946 -0.048800476 0.03330183 -0.013856439 -0.013126087 0.08050513 -0.012126343 -0.0688315
594 0.074232355 -0.0729598 0.03465081 -0.043800946 -0.029027699 -0.04193643 -0.06429291 0.06670503 -0.050434828 0.046888705 -0.060659535 -0.028341483 0.027734807 0.040355466 0.059085947 0.06405287 0.016756615 -0.054721065 0.036851738 0.056350853 -0.0175889 -0.0060489695 0.043491635 -0.038746066 -0.049624622 0.06940622 0.05740777 0.033989783 -0.07116627 -0.07348112 0.066695645 -0.084533684 0.020559696 -0.007308686 -0.021830045 -0.08077914 -0.08102206 -0.018099122 -0.063861705 0.050034955 0.027948681 0.011463641 0.007917017 0.05424673 -0.079790175 0.03802819 -0.06253435 0.06459239 0.034172487 -0.00896088 0.030024413 -0.019221654 0.0028168634 0.014376089 -0.0724907 -0.033058442 -0.039135292 0.06725023 -0.015511835 -0.020350318 0.011136012 0.0747666 -0.07079806 0.078668036
12 -0.049786415 0.04810337 -0.02621378 -0.024899358 0.08322987 0.048244018 -0.058503587 0.06618812 -0.035404302 0.0619355 0.047538817 0.05921955 0.0147064235 0.0773483 0.050076842 0.021884266 -0.02344326 0.04756061 -0.06873462 0.071374066 -0.021284368 -0.08278021 -0.06697577 -0.003573067 0.018136442 -0.043145742 0.031328022 0.04344951 0.08057733 -0.039736997 0.07025207 -0.00050599314 0.020153157 0.07118166 -0.08005821 -0.017597195 -0.08397065 -0.016340794 0.07882728 -0.048770614 0.0015371689 0.039448585 0.071647525 -0.026044255 0.068358235 -0.06905155 0.070778474 -0.022914408 0.0857412 0.07419538 0.03743548 -0.011833186 -0.056418896 -0.035339154 0.071180835 -0.01746909 -0.05704354 -0.03200598 -0.00532213 0.07888106 -0.027909812 -0.008142438 0.052373305 -0.0005981871
hsa-miR-6824-5p 0.025151838 -0.052706525 -0.0067457547 -0.033497106 0.004110057 0.056106195 -0.07189547 0.036324956 0.056256454 0.03633079 -0.0049715727 -0.030189907 0.047116112 0.08624825 0.007104934 -0.071687706 -0.023782717 0.07629799 -0.08076109 0.034869574 -0.058547795 0.013050354 -0.026256092 -0.060767427 0.043097 0.010327619 0.07946437 0.07298103 0.07108746 0.0046673203 0.04477991 0.060019407 0.03787312 0.040697936 -0.041801635 0.013609612 -0.017556539 0.06141282 0.059545532 -0.028122272 0.027072944 0.07590294 0.061281297 0.07117305 0.05817057 -0.042541627 0.06020412 -0.052051544 0.052358847 0.049935307 0.040652063 0.02330001 0.008613658 0.019169621 0.084151685 -0.046892 -0.07623714 -0.05226354 0.08605286 0.052112736 -0.070009105 0.0012405255 0.05788534 -0.07200704
1749 0.055435866 0.069162786 -0.016077034 0.0068686493 0.014075152 0.029553238 -0.040832203 -0.050264962 0.05454455 0.06937889 0.06533567 -0.016842078 -0.03726659 -0.036739275 0.06206353 -0.037537947 -0.053892832 0.025238197 0.0698816 0.050789673 -0.049751107 0.050819002 -0.044837162 0.00790637 0.03687153 0.042136353 0.033565037 0.010056476 0.04593434 -0.017481994 0.0007318915 -0.047296733 -0.06745524 -0.04666585 0.061941557 0.080167696 -0.034260537 -0.06796044 -0.034455903 -0.08568122 0.07667892 -0.023232747 0.05741644 -0.03969957 0.043603316 -0.060842734 -0.019218285 -0.015389543 -0.037442002 0.070451565 0.0071817487 0.059242573 -0.04942851 0.08146833 -0.050198954 0.011609089 -0.055130754 0.06114839 -0.027989067 0.07485792 -0.037111543 0.055779487 -0.03589523 -0.01865435
hsa-miR-4726-5p 0.02941088 0.05285 -0.057887454 -0.0095833745 0.06304923 0.038364973 -0.0492701 0.023588035 -0.0073375064 -0.004088956 0.058407567 -0.028506208 -0.06637082 -0.046530798 0.065120116 -0.015122278 -0.035336714 0.079369836 0.058285475 0.053524043 -0.033174273 -0.057922862 -0.03662995 -0.035416707 -0.046388954 -0.02641971 -0.028145839 0.044499237 0.010738069 0.067143515 -0.046703767 -0.043699503 -0.026884964 -0.037416123 0.05674194 0.07305094 -0.06183121 -0.08038754 -0.056186616 -0.05248454 -0.07561329 -0.06489816 0.057267696 -0.042181797 0.07645457 -0.054151364 -0.079795554 0.06323657 -0.05446527 0.053377517 0.07205861 0.06395416 -0.07944252 0.021844216 -0.027783811 -0.075388856 -0.053501636 0.03449485 -0.08166731 0.07522009 -0.032744918 0.050426446 -0.07538426 -0.019298628
834 -0.022383804 0.0038790703 -0.06452566 -0.01214051 0.025653321 -0.08667295 -0.03975102 0.03914529 0.03276418 0.011371521 -0.018066522 0.035368465 -0.04024878 -0.06801082 -0.01960637 -0.078218915 -0.053974442 0.031315014 0.020348165 0.045207415 0.030057952 -0.03329388 -0.014671675 0.011465573 -0.01907542 -0.044260457 -0.06528787 0.035066 0.06794043 0.08535142 -0.07502502 -0.058436733 -0.07340354 -0.054186694 -0.011165186 -0.046308607 0.005629259 0.07401283 -0.016624069 -0.08580303 -0.028725661 0.005227779 0.04583616 0.0011287499 -0.040462404 -0.006748486 -0.018921318 0.011736172 0.019504402 0.057751894 -0.07121968 0.0649462 -0.015651073 0.059459116 0.04752254 -0.05591314 -0.015675407 -0.045084193 -0.051380318 0.03978723 0.030608531 0.07103563 -0.046215724 -0.085917324
hsa-miR-29a-3p -0.011702537 0.06009969 -0.08449727 0.0678031 0.027037442 0.009768295 0.017846301 0.08005012 0.051705614 0.06196818 -0.017254978 -0.054347076 -0.041905176 -0.060636967 -0.080323845 0.027961994 -0.078740716 0.03899516 0.046892416 -0.035999693 0.057770446 -0.0500653 -0.030432407 0.01268198 -0.04352603 -0.048741713 -0.033789195 0.0045348178 0.046072606 0.037338704 -0.05415637 -0.07544052 -0.06976019 -0.006389849 -0.0025909883 0.04189375 0.030878037 0.06823752 -0.065364346 -0.018329471 -0.04584857 -0.023852026 0.049227756 0.031781834 0.013641205 -0.023415279 -0.0150608495 0.06435714 -0.010627743 0.035529353 -0.020004883 0.035137925 0.0023044422 0.06616918 0.001133454 -0.019731801 -0.020434562 0.02481119 -0.037350196 0.035890825 0.067893125 -0.014164879 -0.022364903 -0.054981496
175 0.053404078 -0.078387186 -0.010545055 -0.02825276 -0.06252643 -0.05017127 0.07719559 0.03708128 -0.02704336 -0.015064 -0.049707785 -0.026478503 -0.07590417 0.047830716 0.0054665213 0.008087735 0.010211157 -0.0654852 0.04596325 -0.055416528 0.014617809 0.061616518 -0.061627306 -0.015411498 -0.012948071 -0.035304926 -0.0015146313 -0.03670796 -0.053005632 -0.00044492632 0.052803077 -0.034570612 -0.017155865 0.0490762 -0.036205273 -0.054674633 0.0769353 -0.07172755 -0.018693162 0.07194778 0.029088493 -0.07479946 0.05839001 -0.027736774 0.017669939 0.0246032 0.08512349 -0.0082572065 0.055257224 -0.00051554013 -0.024881572 0.016840566 0.07653801 0.05510028 0.044254865 -0.011210283 0.033078674 0.07252506 0.04819504 0.002295142 -0.04389181 0.058331624 -0.07358676 -0.06527143
hsa-miR-3192-5p 0.030483231 0.016984398 -0.04738536 -0.074190825 -0.080571964 0.068102434 0.081374906 0.03329902 0.07058947 0.08095301 -0.08397044 0.004609371 -0.049320865 -0.019538 0.023688229 0.03559016 0.008399017 0.039201632 0.055723805 -0.066380545 -0.044379346 0.044731595 -0.055192053 0.056169044 -0.060879745 -0.0837231 0.06550104 -0.050456453 -0.02924902 -0.08124626 -0.08026016 0.029754091 -0.041665405 -0.064092234 -0.06431699 0.018722687 0.062031224 -0.044134498 0.026952064 -0.046843164 0.06932644 -0.048761897 -0.05255979 -0.05333122 0.039422117 0.08272823 0.015523836 -0.07514038 0.055032767 -0.08522946 0.05865354 0.024761321 0.02527968 0.002100471 0.029959429 -0.07841749 -0.08233044 0.06178318 -0.06114173 0.058749866 -0.07376323 0.07419898 0.086631216 0.051189788
373 0.06315133 -0.04458783 -0.02120613 -0.022297414 -0.015601633 0.017860742 -0.06208437 0.05811373 0.081931286 0.06610696 -0.03762282 -0.08101048 -0.06597622 -0.06292883 0.03373688 -0.02586205 0.013716821 0.016090175 0.026039977 -0.052007437 -0.05598056 0.07664803 -0.037232935 -0.07094569 0.060064618 -0.049678773 0.06883618 0.06171944 0.07004424 -0.06294819 0.07160552 0.04919757 0.014059451 0.055819448 -0.021413162 0.07838018 0.026055813 0.046486665 -0.0620867 -0.05884429 0.030175518 0.063616045 0.022974305 0.067464404 -0.07031119 0.00738256 -0.01910541 -0.039372172 0.07219936 0.07032566 0.06728904 0.06371122 -0.015429983 0.08104876 0.05316527 -0.028504767 -0.06513899 0.058077637 0.057885114 0.07114729 -0.07163308 0.05316109 0.050613545 -0.07778089
hsa-miR-6776-5p 0.06815885 0.002311716 -0.022562493 0.0116860755 -0.0077417707 0.0567782 -0.035888083 0.017272513 0.014266407 0.039634228 -0.06271159 -0.03420113 0.0013589473 -0.037490282 0.034741797 -0.02140917 0.030857738 -0.0771063 0.026034487 0.02796289 0.06947313 0.023496427 -0.049085837 -0.039415807 0.029895475 -0.026238333 0.06718369 0.017227892 0.037923235 -0.015368615 0.03465683 0.06513036 0.052466594 0.0071772635 -0.06464859 0.05191112 -0.013253445 0.07787387 -0.033808503 -0.07376827 -0.025050065 -0.011066645 -0.021025795 -0.047360104 -0.056533158 0.057955652 -0.052861232 -0.049308237 0.039562576 0.07714616 0.07773602 0.05128963 -0.050241187 0.07632715 0.070884675 -0.051283307 -0.06313424 0.05889293 0.0321425 0.029187033 -0.044376682 0.055459995 0.07257358 0.038498692
211 -0.019537859 0.014104347 -0.009544332 0.035610683 0.02502478 0.06007622 -0.009522149 0.022252476 0.01809416 0.06493152 -0.059144847 0.0065888753 -0.07536112 -0.025566755 -0.019478004 0.013537411 -0.060035616 0.050212793 0.03301333 -0.0020592334 0.07657622 -0.009122888 -0.046129167 0.0014054449 -0.06746341 0.0064927097 -0.018496417 0.01720952 0.031173412 0.0285986 -0.024848517 -0.06621539 -0.023236329 -0.0677984 -0.01783996 0.019930702 0.013790987 0.07552604 -0.032987457 -0.02654596 -0.042574033 -0.04171487 0.07306745 -0.0018105693 0.06898585 -0.04391174 -0.05446387 -0.030239161 0.028680895 0.021179019 -0.015598651 0.038198933 -0.017086642 0.08349571 -0.013650885 -0.05029642 -0.07380277 0.057639014 -0.05968629 0.0793161 0.04795528 0.06306566 -0.06979683 -0.046288464
hsa-miR-4640-5p -0.04339782 0.052940186 0.026790038 0.064110324 0.024082676 0.050892137 -0.063771755 0.012545876 0.065541826 0.046319455 0.05808477 -0.040063635 -0.055355147 -0.033503775 0.07529796 -0.048572004 -0.034119442 0.039749652 0.05782677 -0.039413586 0.019744989 0.07450087 -0.0706784 0.062161833 -0.030569177 -0.022211645 -0.040694546 0.061234415 0.024329718 0.0055599683 0.034820136 -0.028882556 -0.06266952 -0.050130103 0.016366705 0.04979425 -0.016809791 -0.075646475 -0.043416843 -0.07680702 0.06897472 -0.038055245 0.030153893 -0.07557322 0.075834036 -0.028872378 -0.080154784 -0.045706596 0.0025479384 0.079739906 -0.06925503 0.05462605 -0.034382463 0.03457626 -0.042552695 -0.018336842 -0.053753328 -0.008134535 -0.04197524 0.060330916 -0.032522615 0.042657763 -0.0695222 0.03793072
1065 0.07937684 -0.073340535 -0.017361466 -0.055671833 -0.028656296 -0.066576615 -0.084593646 0.072075315 -0.06563534 0.05251699 -0.08484953 -0.069508106 -0.07866294 0.062776186 0.0811789 -0.07284709 0.054457072 -0.062416792 0.053572606 0.015763942 -0.038159326 0.014860637 0.02569591 -0.0379418 -0.054175377 0.06689121 -0.027074583 0.06040828 -0.04572159 0.034809507 0.053693056 -0.04735606 0.010993437 0.053814575 -0.082700215 -0.03481634 -0.08623781 -0.037882514 -0.040562507 0.0068537616 -0.023770126 0.038916264 0.015773922 -0.067177735 -0.023498002 -0.016882485 -0.03893854 0.012096118 0.047750607 0.043578785 0.03520842 0.0018124778 0.058925107 0.021943185 -0.06403288 -0.038847364 0.02390327 0.0564534 0.031869978 -0.08633286 0.004608268 -0.05165875 -0.06665447 -0.036288626
hsa-miR-5189-5p 0.063632876 -0.05702326 -0.04985407 -0.047297716 -0.08117644 -0.047033902 -0.032322478 0.03348647 -0.016919605 0.06536239 -0.033064976 -0.038083553 -0.079766765 0.052092798 0.030347843 -0.069015786 -0.018689573 -0.057868525 0.06931253 0.07680645 -0.03524575 0.0320167 -0.018570483 0.021780929 -0.03576238 -0.01603553 0.024942417 0.044714496 -0.04312401 0.067356244 0.0627139 -0.04860542 0.06618569 0.07678524 -0.016450346 -0.0065430924 -0.061740287 -0.039244346 -0.036929127 -0.035590883 0.01304956 0.07425923 0.054286454 -0.019913957 -0.011694197 -0.035776105 -0.04065474 0.05259462 0.08258052 0.050453175 0.058455892 -0.047544554 -0.02715351 -0.06349768 -0.07412869 -0.03546965 -0.053115435 0.06504994 0.062352233 -0.030932503 -0.0020703033 0.0052925465 -0.013457095 -0.062177062
1365 -0.08026841 0.0148744285 -0.04181862 0.035826363 -0.06057693 0.07182877 0.041395843 -0.039212324 -0.081927076 0.0065883216 0.054899074 -0.07810739 -0.017384507 -0.052986197 -0.07384775 0.031742036 0.03728915 -0.03660755 -0.058666512 0.05058799 -0.044074103 -0.014648234 0.02778801 -0.045001462 -0.045410942 0.082212545 0.06832742 0.07153264 -0.018263094 -0.008509004 -0.035813916 0.035978384 0.02474546 0.02374677 -0.024453815 -0.039419208 0.036751483 0.054780953 0.016758587 -0.017475368 0.080396585 -0.08603855 0.049055755 -0.036647826 0.07520148 -0.038992804 -0.015059984 -0.071497194 0.047791928 0.053047456 0.060009345 0.016440747 -0.07357122 0.060636315 -0.014783119 -0.028246088 -0.017516218 -0.05139452 0.0072225193 0.019900963 -0.004933378 0.014605466 0.0004947735 -0.0028698654
305 0.075885035 -0.018588467 -0.061413124 0.0100073395 -0.06290568 -0.053147368 -0.057532817 -0.04771255 -0.05124489 0.066456474 -0.07482871 -0.0673739 -0.0709369 0.056914847 0.061392307 -0.08217958 -0.026024781 -0.07515362 0.074712165 0.07407107 -0.020134524 0.049977303 0.07461065 -0.078919195 -0.0688636 0.07774934 -0.018238377 0.025290355 -0.046724044 0.0124784 0.037670348 -0.014560766 0.010494009 0.06462508 0.012781689 -0.034537036 -0.07852199 -0.021104177 -0.037491072 -0.02412001 0.0013922988 0.04794299 0.027601175 -0.017552024 -0.047653485 -0.016972182 -0.06496006 0.049161863 0.020046458 0.03991738 0.0050258436 0.047647543 -0.022841748 0.005662122 -0.02825557 -0.0401594 -0.07266895 0.048428692 -0.06472442 -0.06134575 0.009475905 0.0015744912 -0.05120793 -0.028444821
307 0.05824112 -0.0093613835 -0.0049839998 -0.02582546 -0.045112267 -0.02517369 -0.019388486 0.016382098 -0.061058626 0.05095812 -0.024938611 -0.028439596 -0.008893988 0.061315726 0.052965507 0.08002558 0.062495988 0.011402229 0.021420054 -0.023361672 -0.043459497 0.026277848 0.034716696 -0.025747662 -0.015964389 0.039576165 0.022452068 0.06315718 -0.05122458 -0.016214233 0.0054706666 0.04701522 0.07783793 0.060393445 -0.069055274 -0.021893464 -0.039720446 -0.07248297 -0.03954503 -0.03519126 0.001486551 -0.00037989859 0.027968397 0.03332694 -0.057837036 -0.060088914 -0.026433788 0.04831738 0.015729183 0.003295998 0.032954406 -0.062006243 -0.024936505 -0.05718469 -0.06596762 -0.025952656 -0.04575477 0.0276853 0.010365609 0.066536754 -0.05694229 0.07084629 -0.04008472 -0.032708872
766 -0.057000943 0.05825924 -0.04137261 0.057747707 -0.010652947 -0.023298413 -0.022563655 -0.021884348 -0.0315954 -0.035086107 -0.04448356 0.068480074 -0.032020386 -0.032326058 -0.04166633 -0.041187376 -0.08319311 -0.01566571 0.013684361 0.019434258 -0.084619135 0.028722405 0.008875215 0.01965496 0.03955911 0.056021065 0.07326215 -0.028186519 -0.0798864 -0.06557659 -0.061350934 -0.050061524 -0.08335242 0.07711325 -0.05202993 0.03430421 0.02272509 0.048121307 -0.07916487 0.03189509 0.084033355 0.0045271646 0.016306624 -0.056310948 -0.008175596 0.030859867 -0.042948313 -0.055098355 -0.047615662 -0.019384714 0.013995072 0.016419688 -0.043564778 0.07529619 0.0014246162 0.059765935 -0.0035870613 0.016439844 0.06742856 -0.0044269008 0.047636487 -0.037520923 0.034511425 0.009322856
543 -0.027221125 0.06938259 -0.015409309 -0.001501543 -0.028841432 -0.041974664 0.07849988 0.025844874 -0.06880848 0.054343507 0.055419773 -0.049406275 -0.07142326 -0.01179003 0.00479279 0.014983453 0.026933644 -0.03807537 0.039308537 -0.08091588 -0.04199448 -0.07886827 0.049117193 0.072451085 0.040708862 -0.016753817 -0.06990786 0.020956837 -0.027595377 0.047416933 -0.060578123 0.0647376 0.08069687 -0.05160997 -0.020515706 -0.021972239 0.052355632 -0.06600328 0.06423397 0.029410956 0.08227493 0.06175071 -0.038656726 0.056442354 0.038363323 -0.07111969 -0.07000648 0.053068284 -0.051272433 0.06660933 -0.026814025 -0.014255099 0.019185394 0.0760377 -0.035216898 -0.059441566 -0.047197994 0.075388335 0.03867742 0.028754363 -0.020188693 -0.07017519 0.0026865257 0.019248094
hsa-miR-622 -0.053272076 0.008597178 -0.0148495855 -0.044342346 -0.016323764 -0.0174972 0.012954006 0.030460693 -0.020318259 0.027232673 0.055695876 -0.032031897 -0.07992727 -0.049298797 0.048527487 0.026070893 0.052129164 -0.030580439 0.04658806 -0.057226595 0.02576081 -0.07521881 0.024990872 -0.056048963 0.054262877 -0.009097845 -0.0048022633 0.016524902 0.0008120248 0.0314731 -0.046988383 0.03679583 0.052767403 -0.032908306 -0.024592819 -0.015171969 0.0503592 -0.020153534 0.050531115 0.04157926 0.070756264 0.028209189 -0.08003523 -0.047840245 0.034708694 -0.022181846 -0.025242532 0.037635993 -0.058889903 0.042321492 -0.07519035 -0.013913529 0.03156663 0.023898903 -0.013856146 -0.06027588 -0.0145341065 0.0080045415 0.04720846 -0.058335766 0.053401 -0.07861252 -0.06052134 0.07323943
39 -0.07377528 0.017042622 -0.025372151 0.051094986 0.01756829 -0.051504318 0.0044823317 0.052432798 -0.024192743 0.067960724 -0.03344806 -0.037657253 -0.01736903 -0.04684255 -0.016216941 -0.048834268 -0.08320345 0.0145483045 0.011630078 -0.07850158 0.079791516 -0.056823302 -0.05935048 -0.045403507 -0.00013782782 -0.060288783 -0.06761011 0.023820672 -0.046760466 0.07048954 -0.065952316 -0.0073524253 -0.06349334 -0.029129762 -0.004250767 0.056817167 0.06810296 0.06660375 -0.0230035 -0.065004624 0.06789895 -0.030852795 -0.03208917 -0.024455067 0.08591141 -0.010511996 -0.015136348 0.024038233 -0.032063298 0.013896976 -0.02778617 -0.06831152 -0.0699025 0.042826504 -0.074131876 -0.039863966 -0.019006662 -0.018823927 -0.032708958 0.072766654 0.044254206 -0.0796329 -0.052143216 0.008790457
hsa-miR-615-5p -0.056906532 0.047516007 -0.050656013 0.04514528 -0.043810464 -0.08116914 0.069628194 -0.0049994625 0.017357074 0.07259515 0.028758233 -0.062981375 -0.0319558 -0.024471145 -0.051963173 -0.024004739 -0.0475238 0.06435544 0.06738117 0.0168134 -0.032572567 -0.035147935 -0.054728895 -0.0535786 0.005543437 -0.028231625 -0.06398637 0.054696955 0.010539267 0.0024620052 -0.07319615 -0.024426814 -0.053686444 -0.06219992 -0.045206077 -0.06413504 0.067128286 -0.042109247 0.08104307 -0.06302927 0.06300866 -0.040228505 0.07530156 -0.07423514 0.012114086 -0.021570493 -0.050446138 0.080157556 0.049384747 0.038681567 0.062052213 0.043332968 -0.061626107 -0.078610435 -0.07257561 0.041472863 0.023830477 -0.064685374 -0.020328555 0.051674314 -0.027759008 -0.050572116 -0.06541361 0.037150312
1443 0.040521994 -0.029528499 -0.043746263 -0.031714745 0.0781448 0.04312967 0.02541579 -0.043049175 -0.08343054 -0.075190455 -0.021593263 -0.029937305 -0.07255963 -0.020147037 0.05462776 -0.060751375 -0.0077410764 -0.050100714 0.030372906 -0.01820836 -0.06049268 0.023249678 -0.022484018 0.043866556 0.02832008 -0.079052106 0.041068707 -0.07419344 0.031792294 0.025501251 -0.062607825 -0.05308032 -0.06973175 0.020892084 -0.0361626 -0.015693372 -0.031371757 0.0600885 -0.015402389 -0.056093108 0.0111345425 -0.04765244 0.08437643 -0.0328846 0.028223371 0.034459386 -0.07251517 -0.07190255 0.053139787 0.055061616 -0.027585333 -0.020488705 -0.027051546 0.06517877 0.026674092 0.03500042 -0.059329905 0.01629982 0.07150029 -0.05217007 -0.029410401 -0.08323328 0.0047360873 -0.06739453
hsa-miR-4722-5p 0.04646502 -0.076671205 -0.07699541 -0.08360654 -0.003931027 -0.024537195 0.037819024 0.039873794 -0.032755993 0.041194312 -0.07482658 -0.06057354 -0.0785516 -0.06166152 0.07707169 -0.05701364 0.040445972 -0.064514436 0.06757424 -0.04678147 -0.08031321 0.03805645 -0.046308354 0.0396671 0.02785153 -0.06737135 0.07133424 0.033814408 -0.005114503 0.05281457 -0.034752555 -0.036044903 -0.056192175 -0.03902928 -0.051223617 0.0026509785 -0.028725833 0.07077713 -0.043686155 -0.05923379 -0.06803498 -0.05433603 -0.002293666 0.015444424 0.06454187 0.043959334 0.07327969 -0.075495735 0.044732265 0.074467495 0.034728892 -0.076773494 -0.05921959 0.03303987 0.07118055 0.04992212 0.0008091377 0.07094131 0.0510551 -0.019561661 -0.031705946 -0.08526634 -0.011005487 -0.06482871
584 0.036953542 -0.059129313 -0.02723575 0.07957981 -0.02694362 -0.058203157 -0.009621667 0.08116673 -0.0051568514 0.012779559 -0.07834421 0.0631885 -0.041369457 0.04315291 0.036487017 -0.082203574 0.030039009 -0.08086693 0.025228115 0.047987614 0.028103095 0.04976886 0.07212489 -0.025931878 0.0072130905 0.01503439 -0.02439962 0.015838973 -0.01939641 0.062588595 0.010980857 0.055441245 0.06449516 0.084855385 0.04937731 -0.04428499 -0.077932775 -0.053698372 0.05831982 0.053033922 -0.0008052536 0.06873291 0.012779849 -0.06535752 -0.033097655 0.030023621 -0.0637143 0.055012178 -0.07414039 -0.07402199 0.072654694 0.02686677 0.015095811 0.031899363 0.040686518 -0.012956171 -0.054837238 0.025032055 -0.059609793 -0.06873112 0.022862274 -0.034464628 -0.024321988 0.043549437
597 0.027644427 0.03384101 -0.051124014 0.07634327 -0.07312334 -0.07357788 -0.036875762 -0.015192607 0.0696238 0.034233227 -0.0027348078 -0.05449236 -0.040851437 -0.052822895 -0.02632875 0.057405706 0.03483624 0.077841595 0.081125595 -0.032780007 -0.057701666 0.04343938 0.059977155 -0.047064878 0.027186226 0.021191187 0.054934658 0.014975997 -0.04873701 0.04268617 -0.072109655 0.07446869 -0.037206195 0.034237158 0.041560445 -0.018075852 -0.026367137 0.03181636 -0.011858277 -0.039561693 -0.029815895 -0.0689349 0.052050147 -0.03658172 0.015129264 -0.08355628 -0.060391344 0.034811366 -0.07836812 -0.0463216 0.011261764 -0.058215927 -0.019692078 0.017242901 -0.04962004 0.057771362 0.018775253 0.0016750072 0.03523843 0.04800491 -0.0012317473 -0.022841584 -0.08256055 -0.02151062
1215 0.053685717 0.043104902 -0.064289555 0.039903305 -0.054357395 -0.045951087 -0.0008711526 -0.07283363 0.08651787 0.06219291 0.0651145 0.037311275 0.07473988 0.033947393 0.047229707 -0.05302179 -0.050033085 0.035106204 0.026582915 0.08282519 0.04791976 -0.048446596 0.020977635 0.07947912 0.040594023 0.004277435 -0.07719032 -0.015446317 0.044293717 0.06111597 -0.030604709 -0.0688782 0.042287216 0.051367097 0.008465911 0.012980955 -0.014150874 -0.001600431 0.054750673 -0.07548007 0.05794548 -0.028862141 -0.04160315 -0.0653201 0.082351 -0.076503076 -0.019298946 -0.020091109 -0.0753872 -0.03674417 0.0379269 0.051693887 -0.03835772 -0.02595244 0.033676922 -0.027058974 -0.034051124 0.06892969 -0.014610535 -0.032481715 0.027112603 -0.06037035 0.013442683 0.018368298
hsa-miR-4755-3p 0.07919544 0.059761018 -0.0686389 0.060119167 -0.051387683 -0.0126501955 -0.0604741 0.036587507 -0.02488592 -0.022211025 0.010281002 -0.002176638 0.002467406 0.02945066 -0.0147110205 -0.07501384 -0.07901245 0.028370377 0.055731855 0.0031501628 0.034012213 -0.054470934 -0.072768874 -0.014270103 0.07892209 0.034869872 -0.022957154 0.016437933 0.03963203 -0.05851696 0.04682086 -0.014742715 0.07096005 -0.0019229823 0.015885932 0.025338523 -0.074605435 0.0788742 -0.042792495 -0.030404188 0.07370008 -0.0074439184 -0.027797429 0.0074312594 0.01360745 -0.037770584 -0.026802171 -0.05079563 -0.0040116403 -0.055103935 -0.028747007 -0.022639994 -0.05351454 0.047400333 -0.07593772 -0.015560561 -0.027126366 0.032806344 0.051929984 0.052947685 0.04873843 -0.05152016 0.07543117 0.07342756
48 0.04848597 0.04191238 -0.03750159 0.019770175 -0.060840763 -0.049502537 0.025796572 -0.013817323 0.072719 0.077312574 -0.047392767 -0.02105511 -0.0208661 -0.0065556797 0.079068415 0.052166387 -0.045797423 0.042524748 -0.04884682 -0.061164934 -0.02425718 -0.027239798 -0.048750576 0.040815447 0.05605793 0.030876543 0.02133933 0.06619989 0.0816098 -0.02880987 -0.0032900202 -0.03772382 0.022121498 0.04271853 -0.0017173951 -0.05247502 -0.07244118 -0.047537647 0.008057117 0.04347343 -0.013071958 0.037824705 0.027553711 0.017470494 -0.023745397 0.0766294 -0.0522867 -0.06403493 0.043882884 0.03322186 0.068166226 -0.07980349 -0.066820495 -0.046514165 -0.061056156 -0.04612974 0.07723125 -0.020304866 0.040098455 0.07452558 0.04721541 -0.029033206 0.032949045 -0.017806742
hsa-miR-5047 0.024537593 0.076768346 0.084612206 0.0758735 -0.011521825 -0.07193252 0.07544124 -0.04994757 0.081331044 0.021341542 -0.056132913 0.03849977 -0.04962688 -0.0018285927 -0.028527178 0.05773844 0.044055484 0.029949564 0.06466989 -0.046723917 0.07536429 -0.06250401 0.06055481 0.02593707 0.00991889 0.04028818 -0.058709808 0.0348053 -0.001807407 0.033539496 -0.030043822 -0.026985731 -0.04169619 0.040495157 -0.065465845 -0.056706667 -0.045271657 -0.03129866 -0.020199692 0.08517803 0.037102956 0.06127471 0.024380188 -0.052143615 -0.068160616 -0.05888266 -0.017695919 -0.005927863 0.0534724 -0.038296867 0.07846908 0.031331286 0.05938989 0.011961424 0.07787149 -0.08367677 0.030745994 -0.017669847 0.057459097 -0.06780935 0.060758717 0.030522598 0.08163896 -0.08068437
2513 -0.07233776 -0.03286716 0.011222241 -0.034430392 0.06691276 0.051489107 -0.072240226 0.07518096 -0.03023091 -0.06868828 0.040633526 -0.00807451 -0.0704015 0.026110385 -0.017362766 -0.0598329 -0.050258957 -0.031841014 0.005568528 -0.06610595 0.07171255 0.05776311 0.036449824 -0.025891876 0.007728741 0.038562335 0.05838451 -0.042801034 0.015484724 0.041379742 -0.071265385 -0.032468185 -0.070713125 -0.037502516 0.035160325 0.00022028852 -0.075147286 -0.03174816 0.036393948 0.06779398 0.077181324 0.008937503 -0.053287007 0.023515651 -0.01913087 0.07985149 0.028095638 -0.039879877 0.020100137 -0.003842739 -0.08701858 -0.008543925 -0.01385884 0.030863466 0.062218506 -0.03152512 0.07039966 -0.049119107 -0.037494864 0.0025593112 0.0073278374 -0.08401181 -0.06590522 -0.004871935
hsa-miR-3145-3p -0.06270316 -0.07856023 0.019949757 -0.040735878 0.0742239 0.044747032 -0.068111904 0.053866282 -0.038003463 -0.07092506 0.03753297 0.02200932 -0.055604685 0.003929743 -0.029344916 -0.079142846 -0.041474536 -0.0056658983 0.021720976 -0.067866676 0.027750738 0.06859312 0.041597627 -0.07994736 -0.011296934 0.06755071 0.05221445 -0.0510862 -0.017010516 0.010469804 -0.06410915 -0.027699936 -0.07738032 -0.08159204 0.07394962 -0.03174083 -0.062016774 -0.082692176 0.06676163 0.05504542 0.07317406 0.048624497 -0.038390573 -0.036700264 -0.03591147 0.08603811 0.01695037 0.021824813 0.03640408 0.008578743 -0.07052251 -0.007970865 -0.008691223 -0.018467735 0.042979322 -0.07785594 0.071872205 -0.047295935 -0.08367523 0.01804211 -0.0072511598 -0.08080674 -0.061205048 -0.037094884
3 -0.059282057 0.06476806 -0.02353489 0.0041490286 -0.026992422 0.01060068 -0.03582178 -0.05703688 -0.037797313 0.07074909 -0.068860635 0.06655395 -0.052180413 0.0483763 0.0029729074 0.0016978746 -0.04906314 -0.042429052 -0.0497763 0.049572136 0.016895201 0.028957473 0.07117657 -0.012932286 0.05872176 -0.043726474 0.06752415 -0.037289664 -0.029367752 -0.07375115 -0.02731768 -0.021766258 0.020211602 0.08505808 -0.074089855 0.054895546 -0.029886872 -0.007495984 0.07783251 -0.0144415125 0.056926638 -0.03797419 -0.07634073 -0.072783224 -0.06439738 0.060257036 0.037402913 -0.01437586 -0.038586482 -0.067771 -0.046706393 0.08211806 -0.026117522 -0.047476754 -0.026345883 -0.036486115 0.037983716 0.07823303 -0.000567507 -0.07861032 0.029452521 0.027219716 0.050773762 0.051293038
hsa-miR-1321 -0.0107475445 0.071091786 -0.012486302 -0.036696717 -0.029797966 -0.05673867 -0.08087474 -0.076312736 -0.07049664 -0.07886718 -0.083574 0.08270197 -0.0799706 0.0659132 -0.049491778 0.069527246 -0.029227383 -0.054442715 -0.07175947 0.04925257 -0.03962389 -0.0615426 0.061532117 -0.010472827 -0.0022139978 0.05953799 0.07599876 0.037168678 -0.05640111 -0.04526638 -0.019492112 -0.07849714 0.07050282 0.05344813 -0.07814618 -0.012660509 -0.053275052 -0.024350751 0.07313258 -0.04202105 0.02536909 0.06972385 -0.0155236665 -0.04380128 -0.07083786 0.02346503 -0.039828382 -0.0044360454 -0.014921786 -0.004287142 -0.06369837 0.07207796 -0.043626107 -0.030070946 -0.060920633 -0.07446164 0.04612417 0.06528452 0.07124561 -0.02359134 0.037103616 -0.0745052 0.04683632 -0.028194238
1376 -0.0144547345 0.0029211915 0.072913826 -0.062214047 -0.019181259 -0.076067485 -0.024299622 -4.028948e-05 0.01751234 0.032189816 -0.04710396 0.04823582 0.07398147 -0.040959243 0.05116575 0.051548783 0.012578788 0.020035898 0.008139845 -0.08246718 -0.015289412 0.08358268 0.054116085 0.06493293 0.057532944 0.056152858 0.021455843 0.047421575 0.06712705 0.005208153 -0.048248053 0.02453091 0.048138484 -0.06283119 0.0053133275 -0.038344648 0.0788115 0.059408844 0.07314258 0.062057104 0.06576799 -0.07402931 -0.0063394466 0.04396605 -0.040826906 -0.05478931 -0.034388084 -0.039929733 -0.07164068 -0.068467274 -0.015633745 0.035740457 0.080511175 -0.019654162 0.056896172 -0.027162349 0.07121034 0.026306856 0.030962538 0.06433023 0.07533561 -0.030798038 -0.046815924 -0.07459488
hsa-miR-6760-3p -0.067318 0.029481843 0.08492748 -0.07493366 -0.015788723 -0.053684983 -0.050591115 0.035189383 -0.003157971 0.025119562 -0.060010426 0.044522252 0.05159395 -0.07453564 0.03329008 -0.0009435683 0.016945487 0.028912637 0.04917839 -0.034913506 -0.04809434 0.07505298 0.05400773 0.08287417 0.055252627 0.02989168 0.044036925 0.031269252 0.06413762 -0.018226992 -0.070132434 0.071952626 0.052205056 -0.06435552 -0.013879491 -0.03706044 0.04964745 0.049121868 0.072469056 0.07519825 0.02707162 -0.078236856 -0.032542493 0.06816353 -0.05210628 -0.0742373 -0.0075202696 -0.066324994 -0.05715608 -0.06754762 -0.06677394 0.080596946 0.060761623 -0.009508472 0.055588167 -0.04720273 0.07477134 0.055976953 0.057271264 0.010401475 0.025406705 -0.05585289 -0.065023676 -0.07814109
3075 -0.042974308 0.004641808 -0.049769677 0.042280912 -0.03519968 -0.020546082 0.029799134 0.022871656 -0.042168833 -0.059779014 0.03758162 -0.026183017 0.07549951 0.04710022 -0.05057288 -0.05054865 0.017477982 -0.042652413 -0.03684819 0.05601787 -0.0008648103 0.051469333 0.08427785 0.07094685 0.014552631 -0.07953313 -0.08435392 -0.028678257 -0.046762466 0.083611995 0.055671684 -0.07851596 -0.029542439 -0.03288305 0.019082304 -0.0525536 0.07201353 -0.045197528 -0.021008313 -0.04788752 -0.033490468 -0.031899698 -0.038164664 0.07938251 -0.006259348 -0.0601221 -0.036466327 -0.042796254 0.008012695 0.06595717 0.02952935 -0.034849074 -0.082524866 0.026921513 -0.06820332 -0.066515125 -0.046771996 0.015755624 -0.025028948 0.032587167 -0.036561597 -0.027256649 -0.018618256 0.04914886
hsa-miR-3692-3p -0.05925112 -0.028815355 -0.028234694 -0.016593678 -0.076875195 -0.06516035 -0.03379476 -0.0121312365 -0.023130529 -0.06754315 -0.016593354 -0.05638937 0.078684255 0.084545225 -0.066550836 -0.060517237 -0.019395398 -0.038631607 0.033252496 0.046559148 -0.04031377 0.050922014 0.06403735 0.051588416 0.06881349 -0.06775264 -0.06812392 -0.05060659 -0.056002263 0.05958275 0.03867025 -0.051984005 -0.07808877 -0.056381155 0.012754632 -0.01857591 0.057021156 0.02932861 -0.068627864 -0.07802739 -0.030073306 -0.02255563 -0.06541889 0.058942117 0.00019728579 -0.045319162 -0.03818423 -0.02282566 -0.007365871 0.08402774 -0.04244016 0.034444265 -0.050378524 0.06294271 -0.050186336 -0.03922153 -0.03386968 0.04356814 -0.039070018 0.038504507 0.005083452 -0.022690678 -0.020104527 0.046808753
872 0.018192913 0.021500923 -0.007489048 -0.033661872 -0.04523441 -0.07701318 -0.025216138 0.021149887 -0.047948614 0.08200706 0.08544161 0.08333923 0.035489995 0.012626387 -0.07408884 -0.012078207 0.077858284 -0.06308575 -0.07201807 -0.012990901 0.084480405 0.03934803 0.006799262 0.021030223 -0.0017461465 0.07903907 0.0113742165 0.06258004 -0.050163202 0.023626273 -0.08041624 0.04076858 0.025389293 0.028825443 -0.06048678 -0.07882973 0.029176254 -0.017869603 0.004165322 0.047463186 -0.043367725 -0.061142758 -0.017728297 -0.083391696 -0.07756428 0.06274153 -0.04594087 0.06503075 -0.030076722 -0.022508655 0.03252881 0.02102812 -0.029859168 0.027728288 -0.022163779 0.08014443 0.011527759 -0.048399266 0.06373696 0.07329524 -0.022670757 0.062292576 -0.0864751 -0.07480663
hsa-miR-6849-3p 0.009414531 0.040933665 -0.07348875 -0.05839611 -0.031197038 -0.034506563 -0.07825156 0.07408412 -0.06785248 -0.049749978 0.056882173 0.052574694 0.02123461 -0.03190777 -0.039546575 -0.04844991 0.0297518 0.050046965 0.028820753 -0.023009434 0.053431287 0.004073602 -0.030106803 0.019311162 0.03322666 0.07104906 0.021091014 0.069908194 -0.063953295 0.022904681 -0.055198904 -0.0635389 0.028414235 0.048098583 -0.07635636 -0.046021447 0.083562486 0.019819979 -0.08256145 0.053662322 -0.05279489 -0.030626204 0.07214872 0.028593998 0.00449107 0.0087443385 0.04648769 0.011168138 0.07357369 -0.027036127 -0.053056844 0.048517928 0.011509152 -0.08061211 -0.048350524 0.054714747 -0.0020853733 -0.029836673 0.07386524 0.052575096 -0.06892733 0.057119217 -0.06292569 -0.023983693
1748 0.01826328 0.06179476 -0.004510467 -0.032405924 0.07792177 0.0044642435 0.046868116 0.03652478 -0.06757065 -0.040933356 -0.06199421 0.042503767 -0.08400254 0.06061595 -0.07378603 -0.05572463 0.01966911 -0.058134284 0.03625977 0.033856954 0.07108692 0.066744834 -0.0015516644 0.017424421 0.083034396 0.06807728 0.040449232 0.030509705 -0.034857422 0.033883166 -0.019923044 0.02920745 0.052832343 0.046025153 0.069004446 -0.07714539 -0.03810232 0.008802996 0.03490262 0.059869464 0.07782275 0.04981194 0.05739266 0.05386137 0.070989706 0.047583222 0.06811264 -0.073853925 -0.053953543 0.032171357 -0.0307707 0.038684428 0.08285077 -0.018745169 -0.05215511 -0.06275371 0.033772264 -0.052453596 0.02905409 0.012702081 -0.07470844 0.013982253 0.035978667 -0.039115094
738 0.025798745 -0.043005414 0.013009105 0.044658773 0.013780285 0.085374564 -0.04231617 -0.019112937 0.058476124 0.014997349 -0.08440217 0.0711018 -0.017133422 -0.029747367 -0.07200993 0.056498423 -0.07334688 0.023382355 0.010667722 0.032965954 -0.07519451 0.01818877 -0.0006629792 -0.024349447 0.048109602 0.031045016 0.051630583 0.07742097 0.046182733 -0.051574625 0.023176944 -0.0039506247 -0.07675523 -0.043085393 0.005353335 -0.045428045 -0.052784197 -0.04528091 0.027278852 -0.065572344 0.047699314 -0.06912277 0.0790117 0.020875635 -0.019843902 -0.018846523 -0.041000806 -0.0750275 0.040683884 0.061383054 0.06421596 0.016443327 0.03375732 0.04742375 0.013403926 -0.06966139 0.011844771 0.019726576 0.06461278 -0.06222868 -0.083293594 0.058092684 -0.06076067 0.015291379
hsa-miR-5011-5p 0.0593805 -0.046974685 -0.013191852 -0.021934062 -0.00703727 0.052679256 0.0034001772 0.049354497 -0.06357856 -0.070765495 -0.07151343 -0.07168485 -0.018883046 -0.029042084 -0.07224715 -0.020405436 -0.046037447 -0.017252747 -0.0170941 0.0482918 -0.064800896 -0.044544443 0.023939433 0.057030674 0.08010472 0.065341294 0.017038634 -0.035964876 0.01319788 -0.051850505 -0.059403915 -0.02937099 -0.048860498 -0.04151627 0.04923729 -0.022124127 -0.016095828 -0.055528767 -0.001589905 -0.025816798 0.047545455 -0.048022136 -0.010109173 0.06082514 -0.05214848 0.03100745 0.020006387 -0.07351675 0.0791227 -0.025161363 -0.07911575 0.07717528 0.053544093 0.029352978 0.008690008 -0.029570531 0.010341682 0.052094728 0.08353674 -0.026282601 -0.0804954 0.03683935 -0.028041238 0.008533931
180 0.05294945 -0.022763088 0.0069496515 0.027065732 -0.032700464 -0.07511017 -0.04888883 0.051161278 -0.07488501 0.055276155 -0.07929524 -0.060438015 -0.031175997 -0.0061443243 0.0031610006 0.06524032 0.067936294 -0.03208171 0.07607592 0.017244218 -0.012290228 0.025203697 0.05839669 -0.045093052 -0.018539507 0.07809943 0.034742966 0.05562756 -0.020210333 0.030869305 0.027204068 -0.08102711 0.015177469 0.039533738 -0.038994588 -0.05942894 -0.078059025 -0.044605218 -0.018924017 -0.05158831 0.0072187227 0.013095897 0.026371296 0.05006838 -0.039359786 -0.037559494 -0.07446662 0.010616136 0.06760676 0.04737843 0.042261057 -0.04012789 -0.037954386 0.005696927 -0.048549745 -0.031357385 -0.032197926 -0.013424295 -0.006881519 0.00020779343 0.008000587 0.004810375 -0.060192764 -0.051355563
