G,-0.22055897,0.05876634,-0.5979218,0.44904605,-0.3432067,-0.76723856,0.3236442,-0.3435569,-0.27425003,0.19137555,0.5210423,-0.18711443,0.1898002,0.326046,-0.10361838,-0.14042856,0.25458956,0.074844085,-0.027547404,-0.19428526,0.025326349,-0.0125846835,0.0487774,-0.0064877644,0.06988426,-0.025579708,0.029819753,0.01149519,0.004278754,-0.037845686,-0.0056596487,0.010818443,-0.0881832,0.09691256,-0.018238757,0.050107438,-0.015466021,-0.06862522,-0.116209134,-0.5814629,0.09993866,-0.02423264,0.01998531,0.043304387,0.039679848,0.12033487,0.17770097,0.016526703,-0.034867514,-0.019312516,-0.030613326,-0.091626145,0.017367143,-0.014858866,-0.00063448196,0.0092524495,0.100843,-0.038908325,0.0069888653,0.07584621,0.0033304128,0.027937783,-0.015764706,0.00884044
C,0.08483652,0.015588536,0.329879,-0.22202472,0.40346497,-0.512377,-0.34038183,0.06746206,0.13484028,0.11104944,-0.028676094,-0.045390796,0.093627155,0.171476,-0.008491114,-0.055640597,0.0657893,-0.043128144,-0.037454505,-0.01238407,-0.01106328,-0.13154954,0.41543764,0.1516747,-0.40790543,0.22835365,-0.149633,-0.14135744,0.046263624,0.1540355,0.060055073,0.07673805,0.16976063,-0.22953166,0.12527737,-0.012991857,0.006975743,0.042965263,0.11673451,0.41878125,-0.25404683,0.016409606,-0.01600863,0.023691386,-0.0056070616,-0.095171094,-0.13954449,-0.07454597,0.057605125,0.04683232,0.10085463,0.05520769,0.10278326,-0.06955362,-0.028027207,-0.025352,-0.050937995,0.037254408,-0.03241936,-0.031575084,0.02170622,0.10252575,-0.04353741,0.040348668
T,-0.22872166,0.16120397,-0.52711946,0.5126563,-1.2595444,1.4499711,1.1117266,-0.3417546,0.2371518,-0.68238455,-1.0237303,0.5074565,-0.56237257,-0.98681355,0.23023391,0.3915066,-0.6349977,-0.08232428,0.11792473,0.42083237,-0.12874733,-0.020607535,0.03536178,0.08760377,0.3672541,0.21007614,0.28002405,-0.1572324,-0.1911964,0.20711431,-0.08364077,-0.39561918,0.2581018,-0.26456478,-0.042106252,-0.24161792,0.07549927,0.2349632,0.18169768,1.6648248,1.1747155,0.08220469,-0.034798384,-0.5508595,-0.20137708,-0.13690881,-0.2079939,0.35130852,-0.008468366,-0.0627475,-0.20371471,0.35219085,0.0631488,-0.024532855,-0.04792666,-0.0203147,0.53791565,0.20423166,-0.63818735,0.5624196,0.223948,1.1412122,-0.5117201,0.43426716
A,-0.41279718,-0.029112754,-1.3363609,0.86725664,-0.4273184,-0.16379414,0.3510192,-0.17756301,0.0970946,-0.25804275,-0.39542913,0.19367975,-0.32153395,-0.5814632,0.13329959,0.22156985,-0.2903135,-0.026037095,0.053374857,0.18359253,-0.07733206,0.16639854,-0.5465208,-0.14692858,1.1081607,-0.10616506,0.58723867,0.039622933,-0.2674228,-0.17320797,-0.20472607,-0.5081759,-0.27441543,0.40898776,-0.29891,-0.07032427,0.017018272,0.014811442,-0.18871856,-0.1423526,0.5928757,0.016940724,-0.0012213093,-0.21083084,-0.21807781,-0.25181496,-0.377251,0.28094432,-0.09421749,-0.16793153,-0.4639461,0.4959854,-0.5650224,0.40299615,0.12729283,0.05129607,0.9690608,0.011336217,-0.5646767,0.8772187,0.22104886,1.1644355,-0.53255653,0.43719664
